|--- department_id_is_7 <= 0.50
|   |--- order_number <= 12.50
|   |   |--- add_to_cart_order <= 5.50
|   |   |   |--- department_id_is_13 <= 0.50
|   |   |   |   |--- department_id_is_16 <= 0.50
|   |   |   |   |   |--- add_to_cart_order <= 2.50
|   |   |   |   |   |   |--- days_since_prior_order <= 29.50
|   |   |   |   |   |   |   |--- department_id_is_3 <= 0.50
|   |   |   |   |   |   |   |   |--- department_id_is_4 <= 0.50
|   |   |   |   |   |   |   |   |   |--- department_id_is_20 <= 0.50
|   |   |   |   |   |   |   |   |   |   |--- department_id_is_19 <= 0.50
|   |   |   |   |   |   |   |   |   |   |   |--- truncated branch of depth 33
|   |   |   |   |   |   |   |   |   |   |--- department_id_is_19 >  0.50
|   |   |   |   |   |   |   |   |   |   |   |--- truncated branch of depth 22
|   |   |   |   |   |   |   |   |   |--- department_id_is_20 >  0.50
|   |   |   |   |   |   |   |   |   |   |--- add_to_cart_order <= 1.50
|   |   |   |   |   |   |   |   |   |   |   |--- truncated branch of depth 19
|   |   |   |   |   |   |   |   |   |   |--- add_to_cart_order >  1.50
|   |   |   |   |   |   |   |   |   |   |   |--- truncated branch of depth 19
|   |   |   |   |   |   |   |   |--- department_id_is_4 >  0.50
|   |   |   |   |   |   |   |   |   |--- order_number <= 5.50
|   |   |   |   |   |   |   |   |   |   |--- days_since_prior_order <= 5.50
|   |   |   |   |   |   |   |   |   |   |   |--- truncated branch of depth 13
|   |   |   |   |   |   |   |   |   |   |--- days_since_prior_order >  5.50
|   |   |   |   |   |   |   |   |   |   |   |--- truncated branch of depth 18
|   |   |   |   |   |   |   |   |   |--- order_number >  5.50
|   |   |   |   |   |   |   |   |   |   |--- add_to_cart_order <= 1.50
|   |   |   |   |   |   |   |   |   |   |   |--- truncated branch of depth 24
|   |   |   |   |   |   |   |   |   |   |--- add_to_cart_order >  1.50
|   |   |   |   |   |   |   |   |   |   |   |--- truncated branch of depth 22
|   |   |   |   |   |   |   |--- department_id_is_3 >  0.50
|   |   |   |   |   |   |   |   |--- add_to_cart_order <= 1.50
|   |   |   |   |   |   |   |   |   |--- is_daytime <= 0.50
|   |   |   |   |   |   |   |   |   |   |--- order_dow <= 5.50
|   |   |   |   |   |   |   |   |   |   |   |--- truncated branch of depth 10
|   |   |   |   |   |   |   |   |   |   |--- order_dow >  5.50
|   |   |   |   |   |   |   |   |   |   |   |--- truncated branch of depth 2
|   |   |   |   |   |   |   |   |   |--- is_daytime >  0.50
|   |   |   |   |   |   |   |   |   |   |--- order_dow <= 4.50
|   |   |   |   |   |   |   |   |   |   |   |--- truncated branch of depth 15
|   |   |   |   |   |   |   |   |   |   |--- order_dow >  4.50
|   |   |   |   |   |   |   |   |   |   |   |--- truncated branch of depth 14
|   |   |   |   |   |   |   |   |--- add_to_cart_order >  1.50
|   |   |   |   |   |   |   |   |   |--- order_number <= 5.50
|   |   |   |   |   |   |   |   |   |   |--- order_number <= 4.50
|   |   |   |   |   |   |   |   |   |   |   |--- truncated branch of depth 11
|   |   |   |   |   |   |   |   |   |   |--- order_number >  4.50
|   |   |   |   |   |   |   |   |   |   |   |--- truncated branch of depth 12
|   |   |   |   |   |   |   |   |   |--- order_number >  5.50
|   |   |   |   |   |   |   |   |   |   |--- days_since_prior_order <= 1.50
|   |   |   |   |   |   |   |   |   |   |   |--- truncated branch of depth 5
|   |   |   |   |   |   |   |   |   |   |--- days_since_prior_order >  1.50
|   |   |   |   |   |   |   |   |   |   |   |--- truncated branch of depth 19
|   |   |   |   |   |   |--- days_since_prior_order >  29.50
|   |   |   |   |   |   |   |--- department_id_is_10 <= 0.50
|   |   |   |   |   |   |   |   |--- department_id_is_11 <= 0.50
|   |   |   |   |   |   |   |   |   |--- order_number <= 5.50
|   |   |   |   |   |   |   |   |   |   |--- department_id_is_9 <= 0.50
|   |   |   |   |   |   |   |   |   |   |   |--- truncated branch of depth 22
|   |   |   |   |   |   |   |   |   |   |--- department_id_is_9 >  0.50
|   |   |   |   |   |   |   |   |   |   |   |--- truncated branch of depth 9
|   |   |   |   |   |   |   |   |   |--- order_number >  5.50
|   |   |   |   |   |   |   |   |   |   |--- department_id_is_6 <= 0.50
|   |   |   |   |   |   |   |   |   |   |   |--- truncated branch of depth 25
|   |   |   |   |   |   |   |   |   |   |--- department_id_is_6 >  0.50
|   |   |   |   |   |   |   |   |   |   |   |--- truncated branch of depth 10
|   |   |   |   |   |   |   |   |--- department_id_is_11 >  0.50
|   |   |   |   |   |   |   |   |   |--- is_daytime <= 0.50
|   |   |   |   |   |   |   |   |   |   |--- order_dow <= 5.50
|   |   |   |   |   |   |   |   |   |   |   |--- truncated branch of depth 10
|   |   |   |   |   |   |   |   |   |   |--- order_dow >  5.50
|   |   |   |   |   |   |   |   |   |   |   |--- truncated branch of depth 4
|   |   |   |   |   |   |   |   |   |--- is_daytime >  0.50
|   |   |   |   |   |   |   |   |   |   |--- add_to_cart_order <= 1.50
|   |   |   |   |   |   |   |   |   |   |   |--- truncated branch of depth 11
|   |   |   |   |   |   |   |   |   |   |--- add_to_cart_order >  1.50
|   |   |   |   |   |   |   |   |   |   |   |--- truncated branch of depth 11
|   |   |   |   |   |   |   |--- department_id_is_10 >  0.50
|   |   |   |   |   |   |   |   |--- is_daytime <= 0.50
|   |   |   |   |   |   |   |   |   |--- order_number <= 5.50
|   |   |   |   |   |   |   |   |   |   |--- class: 0.0
|   |   |   |   |   |   |   |   |   |--- order_number >  5.50
|   |   |   |   |   |   |   |   |   |   |--- class: 1.0
|   |   |   |   |   |   |   |   |--- is_daytime >  0.50
|   |   |   |   |   |   |   |   |   |--- order_number <= 5.00
|   |   |   |   |   |   |   |   |   |   |--- add_to_cart_order <= 1.50
|   |   |   |   |   |   |   |   |   |   |   |--- truncated branch of depth 2
|   |   |   |   |   |   |   |   |   |   |--- add_to_cart_order >  1.50
|   |   |   |   |   |   |   |   |   |   |   |--- class: 1.0
|   |   |   |   |   |   |   |   |   |--- order_number >  5.00
|   |   |   |   |   |   |   |   |   |   |--- order_dow <= 2.50
|   |   |   |   |   |   |   |   |   |   |   |--- truncated branch of depth 3
|   |   |   |   |   |   |   |   |   |   |--- order_dow >  2.50
|   |   |   |   |   |   |   |   |   |   |   |--- truncated branch of depth 4
|   |   |   |   |   |--- add_to_cart_order >  2.50
|   |   |   |   |   |   |--- days_since_prior_order <= 29.50
|   |   |   |   |   |   |   |--- add_to_cart_order <= 3.50
|   |   |   |   |   |   |   |   |--- order_number <= 6.50
|   |   |   |   |   |   |   |   |   |--- department_id_is_10 <= 0.50
|   |   |   |   |   |   |   |   |   |   |--- department_id_is_6 <= 0.50
|   |   |   |   |   |   |   |   |   |   |   |--- truncated branch of depth 29
|   |   |   |   |   |   |   |   |   |   |--- department_id_is_6 >  0.50
|   |   |   |   |   |   |   |   |   |   |   |--- truncated branch of depth 9
|   |   |   |   |   |   |   |   |   |--- department_id_is_10 >  0.50
|   |   |   |   |   |   |   |   |   |   |--- order_number <= 5.50
|   |   |   |   |   |   |   |   |   |   |   |--- truncated branch of depth 3
|   |   |   |   |   |   |   |   |   |   |--- order_number >  5.50
|   |   |   |   |   |   |   |   |   |   |   |--- class: 0.0
|   |   |   |   |   |   |   |   |--- order_number >  6.50
|   |   |   |   |   |   |   |   |   |--- department_id_is_9 <= 0.50
|   |   |   |   |   |   |   |   |   |   |--- department_id_is_4 <= 0.50
|   |   |   |   |   |   |   |   |   |   |   |--- truncated branch of depth 32
|   |   |   |   |   |   |   |   |   |   |--- department_id_is_4 >  0.50
|   |   |   |   |   |   |   |   |   |   |   |--- truncated branch of depth 22
|   |   |   |   |   |   |   |   |   |--- department_id_is_9 >  0.50
|   |   |   |   |   |   |   |   |   |   |--- is_daytime <= 0.50
|   |   |   |   |   |   |   |   |   |   |   |--- truncated branch of depth 6
|   |   |   |   |   |   |   |   |   |   |--- is_daytime >  0.50
|   |   |   |   |   |   |   |   |   |   |   |--- truncated branch of depth 13
|   |   |   |   |   |   |   |--- add_to_cart_order >  3.50
|   |   |   |   |   |   |   |   |--- department_id_is_4 <= 0.50
|   |   |   |   |   |   |   |   |   |--- department_id_is_11 <= 0.50
|   |   |   |   |   |   |   |   |   |   |--- add_to_cart_order <= 4.50
|   |   |   |   |   |   |   |   |   |   |   |--- truncated branch of depth 38
|   |   |   |   |   |   |   |   |   |   |--- add_to_cart_order >  4.50
|   |   |   |   |   |   |   |   |   |   |   |--- truncated branch of depth 31
|   |   |   |   |   |   |   |   |   |--- department_id_is_11 >  0.50
|   |   |   |   |   |   |   |   |   |   |--- order_number <= 7.50
|   |   |   |   |   |   |   |   |   |   |   |--- truncated branch of depth 14
|   |   |   |   |   |   |   |   |   |   |--- order_number >  7.50
|   |   |   |   |   |   |   |   |   |   |   |--- truncated branch of depth 15
|   |   |   |   |   |   |   |   |--- department_id_is_4 >  0.50
|   |   |   |   |   |   |   |   |   |--- order_dow <= 1.50
|   |   |   |   |   |   |   |   |   |   |--- order_number <= 5.50
|   |   |   |   |   |   |   |   |   |   |   |--- truncated branch of depth 20
|   |   |   |   |   |   |   |   |   |   |--- order_number >  5.50
|   |   |   |   |   |   |   |   |   |   |   |--- truncated branch of depth 20
|   |   |   |   |   |   |   |   |   |--- order_dow >  1.50
|   |   |   |   |   |   |   |   |   |   |--- days_since_prior_order <= 0.50
|   |   |   |   |   |   |   |   |   |   |   |--- truncated branch of depth 10
|   |   |   |   |   |   |   |   |   |   |--- days_since_prior_order >  0.50
|   |   |   |   |   |   |   |   |   |   |   |--- truncated branch of depth 20
|   |   |   |   |   |   |--- days_since_prior_order >  29.50
|   |   |   |   |   |   |   |--- department_id_is_20 <= 0.50
|   |   |   |   |   |   |   |   |--- add_to_cart_order <= 4.50
|   |   |   |   |   |   |   |   |   |--- department_id_is_3 <= 0.50
|   |   |   |   |   |   |   |   |   |   |--- department_id_is_5 <= 0.50
|   |   |   |   |   |   |   |   |   |   |   |--- truncated branch of depth 26
|   |   |   |   |   |   |   |   |   |   |--- department_id_is_5 >  0.50
|   |   |   |   |   |   |   |   |   |   |   |--- truncated branch of depth 12
|   |   |   |   |   |   |   |   |   |--- department_id_is_3 >  0.50
|   |   |   |   |   |   |   |   |   |   |--- order_number <= 6.50
|   |   |   |   |   |   |   |   |   |   |   |--- truncated branch of depth 9
|   |   |   |   |   |   |   |   |   |   |--- order_number >  6.50
|   |   |   |   |   |   |   |   |   |   |   |--- truncated branch of depth 11
|   |   |   |   |   |   |   |   |--- add_to_cart_order >  4.50
|   |   |   |   |   |   |   |   |   |--- department_id_is_2 <= 0.50
|   |   |   |   |   |   |   |   |   |   |--- department_id_is_19 <= 0.50
|   |   |   |   |   |   |   |   |   |   |   |--- truncated branch of depth 27
|   |   |   |   |   |   |   |   |   |   |--- department_id_is_19 >  0.50
|   |   |   |   |   |   |   |   |   |   |   |--- truncated branch of depth 11
|   |   |   |   |   |   |   |   |   |--- department_id_is_2 >  0.50
|   |   |   |   |   |   |   |   |   |   |--- order_dow <= 1.50
|   |   |   |   |   |   |   |   |   |   |   |--- class: 0.0
|   |   |   |   |   |   |   |   |   |   |--- order_dow >  1.50
|   |   |   |   |   |   |   |   |   |   |   |--- truncated branch of depth 4
|   |   |   |   |   |   |   |--- department_id_is_20 >  0.50
|   |   |   |   |   |   |   |   |--- is_daytime <= 0.50
|   |   |   |   |   |   |   |   |   |--- add_to_cart_order <= 4.50
|   |   |   |   |   |   |   |   |   |   |--- order_dow <= 0.50
|   |   |   |   |   |   |   |   |   |   |   |--- truncated branch of depth 4
|   |   |   |   |   |   |   |   |   |   |--- order_dow >  0.50
|   |   |   |   |   |   |   |   |   |   |   |--- truncated branch of depth 10
|   |   |   |   |   |   |   |   |   |--- add_to_cart_order >  4.50
|   |   |   |   |   |   |   |   |   |   |--- order_number <= 9.50
|   |   |   |   |   |   |   |   |   |   |   |--- truncated branch of depth 7
|   |   |   |   |   |   |   |   |   |   |--- order_number >  9.50
|   |   |   |   |   |   |   |   |   |   |   |--- truncated branch of depth 3
|   |   |   |   |   |   |   |   |--- is_daytime >  0.50
|   |   |   |   |   |   |   |   |   |--- add_to_cart_order <= 3.50
|   |   |   |   |   |   |   |   |   |   |--- order_number <= 9.50
|   |   |   |   |   |   |   |   |   |   |   |--- truncated branch of depth 9
|   |   |   |   |   |   |   |   |   |   |--- order_number >  9.50
|   |   |   |   |   |   |   |   |   |   |   |--- truncated branch of depth 9
|   |   |   |   |   |   |   |   |   |--- add_to_cart_order >  3.50
|   |   |   |   |   |   |   |   |   |   |--- order_number <= 6.50
|   |   |   |   |   |   |   |   |   |   |   |--- truncated branch of depth 8
|   |   |   |   |   |   |   |   |   |   |--- order_number >  6.50
|   |   |   |   |   |   |   |   |   |   |   |--- truncated branch of depth 10
|   |   |   |   |--- department_id_is_16 >  0.50
|   |   |   |   |   |--- days_since_prior_order <= 29.50
|   |   |   |   |   |   |--- order_dow <= 1.50
|   |   |   |   |   |   |   |--- add_to_cart_order <= 2.50
|   |   |   |   |   |   |   |   |--- days_since_prior_order <= 5.50
|   |   |   |   |   |   |   |   |   |--- order_dow <= 0.50
|   |   |   |   |   |   |   |   |   |   |--- days_since_prior_order <= 0.50
|   |   |   |   |   |   |   |   |   |   |   |--- truncated branch of depth 5
|   |   |   |   |   |   |   |   |   |   |--- days_since_prior_order >  0.50
|   |   |   |   |   |   |   |   |   |   |   |--- truncated branch of depth 13
|   |   |   |   |   |   |   |   |   |--- order_dow >  0.50
|   |   |   |   |   |   |   |   |   |   |--- is_daytime <= 0.50
|   |   |   |   |   |   |   |   |   |   |   |--- truncated branch of depth 6
|   |   |   |   |   |   |   |   |   |   |--- is_daytime >  0.50
|   |   |   |   |   |   |   |   |   |   |   |--- truncated branch of depth 11
|   |   |   |   |   |   |   |   |--- days_since_prior_order >  5.50
|   |   |   |   |   |   |   |   |   |--- order_number <= 5.50
|   |   |   |   |   |   |   |   |   |   |--- add_to_cart_order <= 1.50
|   |   |   |   |   |   |   |   |   |   |   |--- truncated branch of depth 13
|   |   |   |   |   |   |   |   |   |   |--- add_to_cart_order >  1.50
|   |   |   |   |   |   |   |   |   |   |   |--- truncated branch of depth 13
|   |   |   |   |   |   |   |   |   |--- order_number >  5.50
|   |   |   |   |   |   |   |   |   |   |--- order_dow <= 0.50
|   |   |   |   |   |   |   |   |   |   |   |--- truncated branch of depth 17
|   |   |   |   |   |   |   |   |   |   |--- order_dow >  0.50
|   |   |   |   |   |   |   |   |   |   |   |--- truncated branch of depth 17
|   |   |   |   |   |   |   |--- add_to_cart_order >  2.50
|   |   |   |   |   |   |   |   |--- days_since_prior_order <= 0.50
|   |   |   |   |   |   |   |   |   |--- is_daytime <= 0.50
|   |   |   |   |   |   |   |   |   |   |--- add_to_cart_order <= 4.50
|   |   |   |   |   |   |   |   |   |   |   |--- class: 1.0
|   |   |   |   |   |   |   |   |   |   |--- add_to_cart_order >  4.50
|   |   |   |   |   |   |   |   |   |   |   |--- class: 0.0
|   |   |   |   |   |   |   |   |   |--- is_daytime >  0.50
|   |   |   |   |   |   |   |   |   |   |--- add_to_cart_order <= 3.50
|   |   |   |   |   |   |   |   |   |   |   |--- truncated branch of depth 4
|   |   |   |   |   |   |   |   |   |   |--- add_to_cart_order >  3.50
|   |   |   |   |   |   |   |   |   |   |   |--- truncated branch of depth 5
|   |   |   |   |   |   |   |   |--- days_since_prior_order >  0.50
|   |   |   |   |   |   |   |   |   |--- order_number <= 5.50
|   |   |   |   |   |   |   |   |   |   |--- order_number <= 4.50
|   |   |   |   |   |   |   |   |   |   |   |--- truncated branch of depth 15
|   |   |   |   |   |   |   |   |   |   |--- order_number >  4.50
|   |   |   |   |   |   |   |   |   |   |   |--- truncated branch of depth 16
|   |   |   |   |   |   |   |   |   |--- order_number >  5.50
|   |   |   |   |   |   |   |   |   |   |--- order_number <= 9.50
|   |   |   |   |   |   |   |   |   |   |   |--- truncated branch of depth 22
|   |   |   |   |   |   |   |   |   |   |--- order_number >  9.50
|   |   |   |   |   |   |   |   |   |   |   |--- truncated branch of depth 15
|   |   |   |   |   |   |--- order_dow >  1.50
|   |   |   |   |   |   |   |--- order_number <= 6.50
|   |   |   |   |   |   |   |   |--- add_to_cart_order <= 2.50
|   |   |   |   |   |   |   |   |   |--- is_daytime <= 0.50
|   |   |   |   |   |   |   |   |   |   |--- order_number <= 5.50
|   |   |   |   |   |   |   |   |   |   |   |--- truncated branch of depth 13
|   |   |   |   |   |   |   |   |   |   |--- order_number >  5.50
|   |   |   |   |   |   |   |   |   |   |   |--- truncated branch of depth 10
|   |   |   |   |   |   |   |   |   |--- is_daytime >  0.50
|   |   |   |   |   |   |   |   |   |   |--- order_dow <= 4.50
|   |   |   |   |   |   |   |   |   |   |   |--- truncated branch of depth 19
|   |   |   |   |   |   |   |   |   |   |--- order_dow >  4.50
|   |   |   |   |   |   |   |   |   |   |   |--- truncated branch of depth 16
|   |   |   |   |   |   |   |   |--- add_to_cart_order >  2.50
|   |   |   |   |   |   |   |   |   |--- add_to_cart_order <= 4.50
|   |   |   |   |   |   |   |   |   |   |--- add_to_cart_order <= 3.50
|   |   |   |   |   |   |   |   |   |   |   |--- truncated branch of depth 21
|   |   |   |   |   |   |   |   |   |   |--- add_to_cart_order >  3.50
|   |   |   |   |   |   |   |   |   |   |   |--- truncated branch of depth 15
|   |   |   |   |   |   |   |   |   |--- add_to_cart_order >  4.50
|   |   |   |   |   |   |   |   |   |   |--- order_dow <= 3.50
|   |   |   |   |   |   |   |   |   |   |   |--- truncated branch of depth 16
|   |   |   |   |   |   |   |   |   |   |--- order_dow >  3.50
|   |   |   |   |   |   |   |   |   |   |   |--- truncated branch of depth 17
|   |   |   |   |   |   |   |--- order_number >  6.50
|   |   |   |   |   |   |   |   |--- is_daytime <= 0.50
|   |   |   |   |   |   |   |   |   |--- days_since_prior_order <= 27.50
|   |   |   |   |   |   |   |   |   |   |--- order_number <= 10.50
|   |   |   |   |   |   |   |   |   |   |   |--- truncated branch of depth 14
|   |   |   |   |   |   |   |   |   |   |--- order_number >  10.50
|   |   |   |   |   |   |   |   |   |   |   |--- truncated branch of depth 10
|   |   |   |   |   |   |   |   |   |--- days_since_prior_order >  27.50
|   |   |   |   |   |   |   |   |   |   |--- order_dow <= 5.50
|   |   |   |   |   |   |   |   |   |   |   |--- class: 1.0
|   |   |   |   |   |   |   |   |   |   |--- order_dow >  5.50
|   |   |   |   |   |   |   |   |   |   |   |--- truncated branch of depth 3
|   |   |   |   |   |   |   |   |--- is_daytime >  0.50
|   |   |   |   |   |   |   |   |   |--- add_to_cart_order <= 2.50
|   |   |   |   |   |   |   |   |   |   |--- add_to_cart_order <= 1.50
|   |   |   |   |   |   |   |   |   |   |   |--- truncated branch of depth 17
|   |   |   |   |   |   |   |   |   |   |--- add_to_cart_order >  1.50
|   |   |   |   |   |   |   |   |   |   |   |--- truncated branch of depth 15
|   |   |   |   |   |   |   |   |   |--- add_to_cart_order >  2.50
|   |   |   |   |   |   |   |   |   |   |--- add_to_cart_order <= 4.50
|   |   |   |   |   |   |   |   |   |   |   |--- truncated branch of depth 19
|   |   |   |   |   |   |   |   |   |   |--- add_to_cart_order >  4.50
|   |   |   |   |   |   |   |   |   |   |   |--- truncated branch of depth 16
|   |   |   |   |   |--- days_since_prior_order >  29.50
|   |   |   |   |   |   |--- add_to_cart_order <= 2.50
|   |   |   |   |   |   |   |--- add_to_cart_order <= 1.50
|   |   |   |   |   |   |   |   |--- order_number <= 5.50
|   |   |   |   |   |   |   |   |   |--- order_number <= 4.50
|   |   |   |   |   |   |   |   |   |   |--- order_dow <= 5.50
|   |   |   |   |   |   |   |   |   |   |   |--- truncated branch of depth 5
|   |   |   |   |   |   |   |   |   |   |--- order_dow >  5.50
|   |   |   |   |   |   |   |   |   |   |   |--- truncated branch of depth 2
|   |   |   |   |   |   |   |   |   |--- order_number >  4.50
|   |   |   |   |   |   |   |   |   |   |--- order_dow <= 5.50
|   |   |   |   |   |   |   |   |   |   |   |--- truncated branch of depth 7
|   |   |   |   |   |   |   |   |   |   |--- order_dow >  5.50
|   |   |   |   |   |   |   |   |   |   |   |--- truncated branch of depth 2
|   |   |   |   |   |   |   |   |--- order_number >  5.50
|   |   |   |   |   |   |   |   |   |--- order_dow <= 0.50
|   |   |   |   |   |   |   |   |   |   |--- is_daytime <= 0.50
|   |   |   |   |   |   |   |   |   |   |   |--- truncated branch of depth 4
|   |   |   |   |   |   |   |   |   |   |--- is_daytime >  0.50
|   |   |   |   |   |   |   |   |   |   |   |--- truncated branch of depth 5
|   |   |   |   |   |   |   |   |   |--- order_dow >  0.50
|   |   |   |   |   |   |   |   |   |   |--- order_dow <= 5.50
|   |   |   |   |   |   |   |   |   |   |   |--- truncated branch of depth 9
|   |   |   |   |   |   |   |   |   |   |--- order_dow >  5.50
|   |   |   |   |   |   |   |   |   |   |   |--- truncated branch of depth 7
|   |   |   |   |   |   |   |--- add_to_cart_order >  1.50
|   |   |   |   |   |   |   |   |--- order_dow <= 2.50
|   |   |   |   |   |   |   |   |   |--- order_number <= 4.50
|   |   |   |   |   |   |   |   |   |   |--- is_daytime <= 0.50
|   |   |   |   |   |   |   |   |   |   |   |--- truncated branch of depth 3
|   |   |   |   |   |   |   |   |   |   |--- is_daytime >  0.50
|   |   |   |   |   |   |   |   |   |   |   |--- truncated branch of depth 3
|   |   |   |   |   |   |   |   |   |--- order_number >  4.50
|   |   |   |   |   |   |   |   |   |   |--- order_dow <= 0.50
|   |   |   |   |   |   |   |   |   |   |   |--- truncated branch of depth 6
|   |   |   |   |   |   |   |   |   |   |--- order_dow >  0.50
|   |   |   |   |   |   |   |   |   |   |   |--- truncated branch of depth 7
|   |   |   |   |   |   |   |   |--- order_dow >  2.50
|   |   |   |   |   |   |   |   |   |--- is_daytime <= 0.50
|   |   |   |   |   |   |   |   |   |   |--- order_number <= 11.50
|   |   |   |   |   |   |   |   |   |   |   |--- truncated branch of depth 9
|   |   |   |   |   |   |   |   |   |   |--- order_number >  11.50
|   |   |   |   |   |   |   |   |   |   |   |--- class: 1.0
|   |   |   |   |   |   |   |   |   |--- is_daytime >  0.50
|   |   |   |   |   |   |   |   |   |   |--- order_number <= 6.50
|   |   |   |   |   |   |   |   |   |   |   |--- truncated branch of depth 6
|   |   |   |   |   |   |   |   |   |   |--- order_number >  6.50
|   |   |   |   |   |   |   |   |   |   |   |--- truncated branch of depth 7
|   |   |   |   |   |   |--- add_to_cart_order >  2.50
|   |   |   |   |   |   |   |--- is_daytime <= 0.50
|   |   |   |   |   |   |   |   |--- order_number <= 6.50
|   |   |   |   |   |   |   |   |   |--- order_number <= 4.50
|   |   |   |   |   |   |   |   |   |   |--- add_to_cart_order <= 4.50
|   |   |   |   |   |   |   |   |   |   |   |--- truncated branch of depth 7
|   |   |   |   |   |   |   |   |   |   |--- add_to_cart_order >  4.50
|   |   |   |   |   |   |   |   |   |   |   |--- truncated branch of depth 6
|   |   |   |   |   |   |   |   |   |--- order_number >  4.50
|   |   |   |   |   |   |   |   |   |   |--- order_dow <= 0.50
|   |   |   |   |   |   |   |   |   |   |   |--- truncated branch of depth 4
|   |   |   |   |   |   |   |   |   |   |--- order_dow >  0.50
|   |   |   |   |   |   |   |   |   |   |   |--- truncated branch of depth 8
|   |   |   |   |   |   |   |   |--- order_number >  6.50
|   |   |   |   |   |   |   |   |   |--- add_to_cart_order <= 3.50
|   |   |   |   |   |   |   |   |   |   |--- order_dow <= 1.50
|   |   |   |   |   |   |   |   |   |   |   |--- truncated branch of depth 5
|   |   |   |   |   |   |   |   |   |   |--- order_dow >  1.50
|   |   |   |   |   |   |   |   |   |   |   |--- truncated branch of depth 8
|   |   |   |   |   |   |   |   |   |--- add_to_cart_order >  3.50
|   |   |   |   |   |   |   |   |   |   |--- order_number <= 9.50
|   |   |   |   |   |   |   |   |   |   |   |--- truncated branch of depth 9
|   |   |   |   |   |   |   |   |   |   |--- order_number >  9.50
|   |   |   |   |   |   |   |   |   |   |   |--- truncated branch of depth 8
|   |   |   |   |   |   |   |--- is_daytime >  0.50
|   |   |   |   |   |   |   |   |--- add_to_cart_order <= 4.50
|   |   |   |   |   |   |   |   |   |--- add_to_cart_order <= 3.50
|   |   |   |   |   |   |   |   |   |   |--- order_number <= 7.50
|   |   |   |   |   |   |   |   |   |   |   |--- truncated branch of depth 9
|   |   |   |   |   |   |   |   |   |   |--- order_number >  7.50
|   |   |   |   |   |   |   |   |   |   |   |--- truncated branch of depth 10
|   |   |   |   |   |   |   |   |   |--- add_to_cart_order >  3.50
|   |   |   |   |   |   |   |   |   |   |--- order_number <= 10.50
|   |   |   |   |   |   |   |   |   |   |   |--- truncated branch of depth 10
|   |   |   |   |   |   |   |   |   |   |--- order_number >  10.50
|   |   |   |   |   |   |   |   |   |   |   |--- truncated branch of depth 7
|   |   |   |   |   |   |   |   |--- add_to_cart_order >  4.50
|   |   |   |   |   |   |   |   |   |--- order_dow <= 3.50
|   |   |   |   |   |   |   |   |   |   |--- order_number <= 7.50
|   |   |   |   |   |   |   |   |   |   |   |--- truncated branch of depth 7
|   |   |   |   |   |   |   |   |   |   |--- order_number >  7.50
|   |   |   |   |   |   |   |   |   |   |   |--- truncated branch of depth 7
|   |   |   |   |   |   |   |   |   |--- order_dow >  3.50
|   |   |   |   |   |   |   |   |   |   |--- order_number <= 9.50
|   |   |   |   |   |   |   |   |   |   |   |--- truncated branch of depth 8
|   |   |   |   |   |   |   |   |   |   |--- order_number >  9.50
|   |   |   |   |   |   |   |   |   |   |   |--- truncated branch of depth 5
|   |   |   |--- department_id_is_13 >  0.50
|   |   |   |   |--- order_number <= 6.50
|   |   |   |   |   |--- is_daytime <= 0.50
|   |   |   |   |   |   |--- add_to_cart_order <= 2.50
|   |   |   |   |   |   |   |--- order_number <= 4.50
|   |   |   |   |   |   |   |   |--- days_since_prior_order <= 0.50
|   |   |   |   |   |   |   |   |   |--- class: 1.0
|   |   |   |   |   |   |   |   |--- days_since_prior_order >  0.50
|   |   |   |   |   |   |   |   |   |--- order_dow <= 1.50
|   |   |   |   |   |   |   |   |   |   |--- days_since_prior_order <= 16.50
|   |   |   |   |   |   |   |   |   |   |   |--- truncated branch of depth 3
|   |   |   |   |   |   |   |   |   |   |--- days_since_prior_order >  16.50
|   |   |   |   |   |   |   |   |   |   |   |--- truncated branch of depth 5
|   |   |   |   |   |   |   |   |   |--- order_dow >  1.50
|   |   |   |   |   |   |   |   |   |   |--- order_dow <= 4.50
|   |   |   |   |   |   |   |   |   |   |   |--- truncated branch of depth 7
|   |   |   |   |   |   |   |   |   |   |--- order_dow >  4.50
|   |   |   |   |   |   |   |   |   |   |   |--- truncated branch of depth 5
|   |   |   |   |   |   |   |--- order_number >  4.50
|   |   |   |   |   |   |   |   |--- order_dow <= 0.50
|   |   |   |   |   |   |   |   |   |--- add_to_cart_order <= 1.50
|   |   |   |   |   |   |   |   |   |   |--- order_number <= 5.50
|   |   |   |   |   |   |   |   |   |   |   |--- truncated branch of depth 2
|   |   |   |   |   |   |   |   |   |   |--- order_number >  5.50
|   |   |   |   |   |   |   |   |   |   |   |--- truncated branch of depth 2
|   |   |   |   |   |   |   |   |   |--- add_to_cart_order >  1.50
|   |   |   |   |   |   |   |   |   |   |--- order_number <= 5.50
|   |   |   |   |   |   |   |   |   |   |   |--- class: 0.0
|   |   |   |   |   |   |   |   |   |   |--- order_number >  5.50
|   |   |   |   |   |   |   |   |   |   |   |--- truncated branch of depth 2
|   |   |   |   |   |   |   |   |--- order_dow >  0.50
|   |   |   |   |   |   |   |   |   |--- order_number <= 5.50
|   |   |   |   |   |   |   |   |   |   |--- order_dow <= 4.50
|   |   |   |   |   |   |   |   |   |   |   |--- truncated branch of depth 8
|   |   |   |   |   |   |   |   |   |   |--- order_dow >  4.50
|   |   |   |   |   |   |   |   |   |   |   |--- truncated branch of depth 5
|   |   |   |   |   |   |   |   |   |--- order_number >  5.50
|   |   |   |   |   |   |   |   |   |   |--- order_dow <= 4.50
|   |   |   |   |   |   |   |   |   |   |   |--- truncated branch of depth 5
|   |   |   |   |   |   |   |   |   |   |--- order_dow >  4.50
|   |   |   |   |   |   |   |   |   |   |   |--- truncated branch of depth 6
|   |   |   |   |   |   |--- add_to_cart_order >  2.50
|   |   |   |   |   |   |   |--- days_since_prior_order <= 0.50
|   |   |   |   |   |   |   |   |--- class: 1.0
|   |   |   |   |   |   |   |--- days_since_prior_order >  0.50
|   |   |   |   |   |   |   |   |--- days_since_prior_order <= 6.50
|   |   |   |   |   |   |   |   |   |--- days_since_prior_order <= 1.50
|   |   |   |   |   |   |   |   |   |   |--- order_dow <= 4.00
|   |   |   |   |   |   |   |   |   |   |   |--- truncated branch of depth 3
|   |   |   |   |   |   |   |   |   |   |--- order_dow >  4.00
|   |   |   |   |   |   |   |   |   |   |   |--- class: 0.0
|   |   |   |   |   |   |   |   |   |--- days_since_prior_order >  1.50
|   |   |   |   |   |   |   |   |   |   |--- days_since_prior_order <= 4.50
|   |   |   |   |   |   |   |   |   |   |   |--- class: 0.0
|   |   |   |   |   |   |   |   |   |   |--- days_since_prior_order >  4.50
|   |   |   |   |   |   |   |   |   |   |   |--- truncated branch of depth 3
|   |   |   |   |   |   |   |   |--- days_since_prior_order >  6.50
|   |   |   |   |   |   |   |   |   |--- order_dow <= 2.50
|   |   |   |   |   |   |   |   |   |   |--- order_dow <= 1.50
|   |   |   |   |   |   |   |   |   |   |   |--- truncated branch of depth 9
|   |   |   |   |   |   |   |   |   |   |--- order_dow >  1.50
|   |   |   |   |   |   |   |   |   |   |   |--- truncated branch of depth 6
|   |   |   |   |   |   |   |   |   |--- order_dow >  2.50
|   |   |   |   |   |   |   |   |   |   |--- days_since_prior_order <= 8.50
|   |   |   |   |   |   |   |   |   |   |   |--- truncated branch of depth 4
|   |   |   |   |   |   |   |   |   |   |--- days_since_prior_order >  8.50
|   |   |   |   |   |   |   |   |   |   |   |--- truncated branch of depth 9
|   |   |   |   |   |--- is_daytime >  0.50
|   |   |   |   |   |   |--- order_number <= 4.50
|   |   |   |   |   |   |   |--- days_since_prior_order <= 0.50
|   |   |   |   |   |   |   |   |--- order_dow <= 3.50
|   |   |   |   |   |   |   |   |   |--- order_dow <= 1.50
|   |   |   |   |   |   |   |   |   |   |--- class: 1.0
|   |   |   |   |   |   |   |   |   |--- order_dow >  1.50
|   |   |   |   |   |   |   |   |   |   |--- add_to_cart_order <= 1.50
|   |   |   |   |   |   |   |   |   |   |   |--- class: 0.0
|   |   |   |   |   |   |   |   |   |   |--- add_to_cart_order >  1.50
|   |   |   |   |   |   |   |   |   |   |   |--- class: 1.0
|   |   |   |   |   |   |   |   |--- order_dow >  3.50
|   |   |   |   |   |   |   |   |   |--- order_dow <= 4.50
|   |   |   |   |   |   |   |   |   |   |--- add_to_cart_order <= 3.00
|   |   |   |   |   |   |   |   |   |   |   |--- class: 0.0
|   |   |   |   |   |   |   |   |   |   |--- add_to_cart_order >  3.00
|   |   |   |   |   |   |   |   |   |   |   |--- class: 1.0
|   |   |   |   |   |   |   |   |   |--- order_dow >  4.50
|   |   |   |   |   |   |   |   |   |   |--- order_dow <= 5.50
|   |   |   |   |   |   |   |   |   |   |   |--- truncated branch of depth 2
|   |   |   |   |   |   |   |   |   |   |--- order_dow >  5.50
|   |   |   |   |   |   |   |   |   |   |   |--- truncated branch of depth 2
|   |   |   |   |   |   |   |--- days_since_prior_order >  0.50
|   |   |   |   |   |   |   |   |--- order_dow <= 5.50
|   |   |   |   |   |   |   |   |   |--- order_dow <= 4.50
|   |   |   |   |   |   |   |   |   |   |--- add_to_cart_order <= 2.50
|   |   |   |   |   |   |   |   |   |   |   |--- truncated branch of depth 11
|   |   |   |   |   |   |   |   |   |   |--- add_to_cart_order >  2.50
|   |   |   |   |   |   |   |   |   |   |   |--- truncated branch of depth 13
|   |   |   |   |   |   |   |   |   |--- order_dow >  4.50
|   |   |   |   |   |   |   |   |   |   |--- days_since_prior_order <= 2.50
|   |   |   |   |   |   |   |   |   |   |   |--- truncated branch of depth 3
|   |   |   |   |   |   |   |   |   |   |--- days_since_prior_order >  2.50
|   |   |   |   |   |   |   |   |   |   |   |--- truncated branch of depth 10
|   |   |   |   |   |   |   |   |--- order_dow >  5.50
|   |   |   |   |   |   |   |   |   |--- add_to_cart_order <= 4.50
|   |   |   |   |   |   |   |   |   |   |--- days_since_prior_order <= 15.50
|   |   |   |   |   |   |   |   |   |   |   |--- truncated branch of depth 8
|   |   |   |   |   |   |   |   |   |   |--- days_since_prior_order >  15.50
|   |   |   |   |   |   |   |   |   |   |   |--- truncated branch of depth 7
|   |   |   |   |   |   |   |   |   |--- add_to_cart_order >  4.50
|   |   |   |   |   |   |   |   |   |   |--- days_since_prior_order <= 13.50
|   |   |   |   |   |   |   |   |   |   |   |--- truncated branch of depth 4
|   |   |   |   |   |   |   |   |   |   |--- days_since_prior_order >  13.50
|   |   |   |   |   |   |   |   |   |   |   |--- truncated branch of depth 2
|   |   |   |   |   |   |--- order_number >  4.50
|   |   |   |   |   |   |   |--- order_number <= 5.50
|   |   |   |   |   |   |   |   |--- days_since_prior_order <= 0.50
|   |   |   |   |   |   |   |   |   |--- add_to_cart_order <= 1.50
|   |   |   |   |   |   |   |   |   |   |--- class: 0.0
|   |   |   |   |   |   |   |   |   |--- add_to_cart_order >  1.50
|   |   |   |   |   |   |   |   |   |   |--- order_dow <= 0.50
|   |   |   |   |   |   |   |   |   |   |   |--- truncated branch of depth 2
|   |   |   |   |   |   |   |   |   |   |--- order_dow >  0.50
|   |   |   |   |   |   |   |   |   |   |   |--- class: 1.0
|   |   |   |   |   |   |   |   |--- days_since_prior_order >  0.50
|   |   |   |   |   |   |   |   |   |--- days_since_prior_order <= 22.50
|   |   |   |   |   |   |   |   |   |   |--- order_dow <= 1.50
|   |   |   |   |   |   |   |   |   |   |   |--- truncated branch of depth 11
|   |   |   |   |   |   |   |   |   |   |--- order_dow >  1.50
|   |   |   |   |   |   |   |   |   |   |   |--- truncated branch of depth 14
|   |   |   |   |   |   |   |   |   |--- days_since_prior_order >  22.50
|   |   |   |   |   |   |   |   |   |   |--- add_to_cart_order <= 2.50
|   |   |   |   |   |   |   |   |   |   |   |--- truncated branch of depth 11
|   |   |   |   |   |   |   |   |   |   |--- add_to_cart_order >  2.50
|   |   |   |   |   |   |   |   |   |   |   |--- truncated branch of depth 11
|   |   |   |   |   |   |   |--- order_number >  5.50
|   |   |   |   |   |   |   |   |--- add_to_cart_order <= 4.50
|   |   |   |   |   |   |   |   |   |--- order_dow <= 5.50
|   |   |   |   |   |   |   |   |   |   |--- order_dow <= 2.50
|   |   |   |   |   |   |   |   |   |   |   |--- truncated branch of depth 12
|   |   |   |   |   |   |   |   |   |   |--- order_dow >  2.50
|   |   |   |   |   |   |   |   |   |   |   |--- truncated branch of depth 12
|   |   |   |   |   |   |   |   |   |--- order_dow >  5.50
|   |   |   |   |   |   |   |   |   |   |--- days_since_prior_order <= 6.50
|   |   |   |   |   |   |   |   |   |   |   |--- truncated branch of depth 6
|   |   |   |   |   |   |   |   |   |   |--- days_since_prior_order >  6.50
|   |   |   |   |   |   |   |   |   |   |   |--- truncated branch of depth 10
|   |   |   |   |   |   |   |   |--- add_to_cart_order >  4.50
|   |   |   |   |   |   |   |   |   |--- order_dow <= 2.50
|   |   |   |   |   |   |   |   |   |   |--- days_since_prior_order <= 0.50
|   |   |   |   |   |   |   |   |   |   |   |--- class: 1.0
|   |   |   |   |   |   |   |   |   |   |--- days_since_prior_order >  0.50
|   |   |   |   |   |   |   |   |   |   |   |--- truncated branch of depth 8
|   |   |   |   |   |   |   |   |   |--- order_dow >  2.50
|   |   |   |   |   |   |   |   |   |   |--- days_since_prior_order <= 19.50
|   |   |   |   |   |   |   |   |   |   |   |--- truncated branch of depth 10
|   |   |   |   |   |   |   |   |   |   |--- days_since_prior_order >  19.50
|   |   |   |   |   |   |   |   |   |   |   |--- truncated branch of depth 6
|   |   |   |   |--- order_number >  6.50
|   |   |   |   |   |--- add_to_cart_order <= 4.50
|   |   |   |   |   |   |--- order_dow <= 4.50
|   |   |   |   |   |   |   |--- add_to_cart_order <= 3.50
|   |   |   |   |   |   |   |   |--- add_to_cart_order <= 1.50
|   |   |   |   |   |   |   |   |   |--- order_dow <= 2.50
|   |   |   |   |   |   |   |   |   |   |--- order_dow <= 1.50
|   |   |   |   |   |   |   |   |   |   |   |--- truncated branch of depth 16
|   |   |   |   |   |   |   |   |   |   |--- order_dow >  1.50
|   |   |   |   |   |   |   |   |   |   |   |--- truncated branch of depth 9
|   |   |   |   |   |   |   |   |   |--- order_dow >  2.50
|   |   |   |   |   |   |   |   |   |   |--- order_dow <= 3.50
|   |   |   |   |   |   |   |   |   |   |   |--- truncated branch of depth 9
|   |   |   |   |   |   |   |   |   |   |--- order_dow >  3.50
|   |   |   |   |   |   |   |   |   |   |   |--- truncated branch of depth 8
|   |   |   |   |   |   |   |   |--- add_to_cart_order >  1.50
|   |   |   |   |   |   |   |   |   |--- order_dow <= 1.50
|   |   |   |   |   |   |   |   |   |   |--- is_daytime <= 0.50
|   |   |   |   |   |   |   |   |   |   |   |--- truncated branch of depth 9
|   |   |   |   |   |   |   |   |   |   |--- is_daytime >  0.50
|   |   |   |   |   |   |   |   |   |   |   |--- truncated branch of depth 18
|   |   |   |   |   |   |   |   |   |--- order_dow >  1.50
|   |   |   |   |   |   |   |   |   |   |--- days_since_prior_order <= 0.50
|   |   |   |   |   |   |   |   |   |   |   |--- truncated branch of depth 5
|   |   |   |   |   |   |   |   |   |   |--- days_since_prior_order >  0.50
|   |   |   |   |   |   |   |   |   |   |   |--- truncated branch of depth 17
|   |   |   |   |   |   |   |--- add_to_cart_order >  3.50
|   |   |   |   |   |   |   |   |--- days_since_prior_order <= 6.50
|   |   |   |   |   |   |   |   |   |--- is_daytime <= 0.50
|   |   |   |   |   |   |   |   |   |   |--- order_number <= 9.50
|   |   |   |   |   |   |   |   |   |   |   |--- truncated branch of depth 4
|   |   |   |   |   |   |   |   |   |   |--- order_number >  9.50
|   |   |   |   |   |   |   |   |   |   |   |--- class: 0.0
|   |   |   |   |   |   |   |   |   |--- is_daytime >  0.50
|   |   |   |   |   |   |   |   |   |   |--- days_since_prior_order <= 0.50
|   |   |   |   |   |   |   |   |   |   |   |--- truncated branch of depth 4
|   |   |   |   |   |   |   |   |   |   |--- days_since_prior_order >  0.50
|   |   |   |   |   |   |   |   |   |   |   |--- truncated branch of depth 10
|   |   |   |   |   |   |   |   |--- days_since_prior_order >  6.50
|   |   |   |   |   |   |   |   |   |--- days_since_prior_order <= 20.50
|   |   |   |   |   |   |   |   |   |   |--- order_number <= 7.50
|   |   |   |   |   |   |   |   |   |   |   |--- truncated branch of depth 8
|   |   |   |   |   |   |   |   |   |   |--- order_number >  7.50
|   |   |   |   |   |   |   |   |   |   |   |--- truncated branch of depth 13
|   |   |   |   |   |   |   |   |   |--- days_since_prior_order >  20.50
|   |   |   |   |   |   |   |   |   |   |--- is_daytime <= 0.50
|   |   |   |   |   |   |   |   |   |   |   |--- truncated branch of depth 7
|   |   |   |   |   |   |   |   |   |   |--- is_daytime >  0.50
|   |   |   |   |   |   |   |   |   |   |   |--- truncated branch of depth 13
|   |   |   |   |   |   |--- order_dow >  4.50
|   |   |   |   |   |   |   |--- order_number <= 10.50
|   |   |   |   |   |   |   |   |--- is_daytime <= 0.50
|   |   |   |   |   |   |   |   |   |--- order_number <= 9.50
|   |   |   |   |   |   |   |   |   |   |--- add_to_cart_order <= 1.50
|   |   |   |   |   |   |   |   |   |   |   |--- truncated branch of depth 5
|   |   |   |   |   |   |   |   |   |   |--- add_to_cart_order >  1.50
|   |   |   |   |   |   |   |   |   |   |   |--- truncated branch of depth 9
|   |   |   |   |   |   |   |   |   |--- order_number >  9.50
|   |   |   |   |   |   |   |   |   |   |--- order_dow <= 5.50
|   |   |   |   |   |   |   |   |   |   |   |--- truncated branch of depth 5
|   |   |   |   |   |   |   |   |   |   |--- order_dow >  5.50
|   |   |   |   |   |   |   |   |   |   |   |--- truncated branch of depth 4
|   |   |   |   |   |   |   |   |--- is_daytime >  0.50
|   |   |   |   |   |   |   |   |   |--- days_since_prior_order <= 28.50
|   |   |   |   |   |   |   |   |   |   |--- days_since_prior_order <= 27.50
|   |   |   |   |   |   |   |   |   |   |   |--- truncated branch of depth 14
|   |   |   |   |   |   |   |   |   |   |--- days_since_prior_order >  27.50
|   |   |   |   |   |   |   |   |   |   |   |--- truncated branch of depth 4
|   |   |   |   |   |   |   |   |   |--- days_since_prior_order >  28.50
|   |   |   |   |   |   |   |   |   |   |--- order_dow <= 5.50
|   |   |   |   |   |   |   |   |   |   |   |--- truncated branch of depth 8
|   |   |   |   |   |   |   |   |   |   |--- order_dow >  5.50
|   |   |   |   |   |   |   |   |   |   |   |--- truncated branch of depth 8
|   |   |   |   |   |   |   |--- order_number >  10.50
|   |   |   |   |   |   |   |   |--- order_number <= 11.50
|   |   |   |   |   |   |   |   |   |--- add_to_cart_order <= 3.50
|   |   |   |   |   |   |   |   |   |   |--- days_since_prior_order <= 6.50
|   |   |   |   |   |   |   |   |   |   |   |--- truncated branch of depth 5
|   |   |   |   |   |   |   |   |   |   |--- days_since_prior_order >  6.50
|   |   |   |   |   |   |   |   |   |   |   |--- truncated branch of depth 9
|   |   |   |   |   |   |   |   |   |--- add_to_cart_order >  3.50
|   |   |   |   |   |   |   |   |   |   |--- days_since_prior_order <= 22.00
|   |   |   |   |   |   |   |   |   |   |   |--- truncated branch of depth 7
|   |   |   |   |   |   |   |   |   |   |--- days_since_prior_order >  22.00
|   |   |   |   |   |   |   |   |   |   |   |--- truncated branch of depth 4
|   |   |   |   |   |   |   |   |--- order_number >  11.50
|   |   |   |   |   |   |   |   |   |--- days_since_prior_order <= 4.50
|   |   |   |   |   |   |   |   |   |   |--- add_to_cart_order <= 3.50
|   |   |   |   |   |   |   |   |   |   |   |--- class: 0.0
|   |   |   |   |   |   |   |   |   |   |--- add_to_cart_order >  3.50
|   |   |   |   |   |   |   |   |   |   |   |--- truncated branch of depth 4
|   |   |   |   |   |   |   |   |   |--- days_since_prior_order >  4.50
|   |   |   |   |   |   |   |   |   |   |--- order_dow <= 5.50
|   |   |   |   |   |   |   |   |   |   |   |--- truncated branch of depth 9
|   |   |   |   |   |   |   |   |   |   |--- order_dow >  5.50
|   |   |   |   |   |   |   |   |   |   |   |--- truncated branch of depth 7
|   |   |   |   |   |--- add_to_cart_order >  4.50
|   |   |   |   |   |   |--- order_dow <= 0.50
|   |   |   |   |   |   |   |--- days_since_prior_order <= 2.50
|   |   |   |   |   |   |   |   |--- order_number <= 9.50
|   |   |   |   |   |   |   |   |   |--- days_since_prior_order <= 1.50
|   |   |   |   |   |   |   |   |   |   |--- class: 1.0
|   |   |   |   |   |   |   |   |   |--- days_since_prior_order >  1.50
|   |   |   |   |   |   |   |   |   |   |--- order_number <= 7.50
|   |   |   |   |   |   |   |   |   |   |   |--- class: 0.0
|   |   |   |   |   |   |   |   |   |   |--- order_number >  7.50
|   |   |   |   |   |   |   |   |   |   |   |--- class: 0.0
|   |   |   |   |   |   |   |   |--- order_number >  9.50
|   |   |   |   |   |   |   |   |   |--- class: 0.0
|   |   |   |   |   |   |   |--- days_since_prior_order >  2.50
|   |   |   |   |   |   |   |   |--- is_daytime <= 0.50
|   |   |   |   |   |   |   |   |   |--- days_since_prior_order <= 5.50
|   |   |   |   |   |   |   |   |   |   |--- class: 1.0
|   |   |   |   |   |   |   |   |   |--- days_since_prior_order >  5.50
|   |   |   |   |   |   |   |   |   |   |--- order_number <= 9.50
|   |   |   |   |   |   |   |   |   |   |   |--- truncated branch of depth 3
|   |   |   |   |   |   |   |   |   |   |--- order_number >  9.50
|   |   |   |   |   |   |   |   |   |   |   |--- truncated branch of depth 2
|   |   |   |   |   |   |   |   |--- is_daytime >  0.50
|   |   |   |   |   |   |   |   |   |--- order_number <= 8.50
|   |   |   |   |   |   |   |   |   |   |--- days_since_prior_order <= 29.50
|   |   |   |   |   |   |   |   |   |   |   |--- truncated branch of depth 9
|   |   |   |   |   |   |   |   |   |   |--- days_since_prior_order >  29.50
|   |   |   |   |   |   |   |   |   |   |   |--- truncated branch of depth 2
|   |   |   |   |   |   |   |   |   |--- order_number >  8.50
|   |   |   |   |   |   |   |   |   |   |--- days_since_prior_order <= 29.50
|   |   |   |   |   |   |   |   |   |   |   |--- truncated branch of depth 8
|   |   |   |   |   |   |   |   |   |   |--- days_since_prior_order >  29.50
|   |   |   |   |   |   |   |   |   |   |   |--- truncated branch of depth 3
|   |   |   |   |   |   |--- order_dow >  0.50
|   |   |   |   |   |   |   |--- order_number <= 7.50
|   |   |   |   |   |   |   |   |--- is_daytime <= 0.50
|   |   |   |   |   |   |   |   |   |--- days_since_prior_order <= 9.50
|   |   |   |   |   |   |   |   |   |   |--- class: 0.0
|   |   |   |   |   |   |   |   |   |--- days_since_prior_order >  9.50
|   |   |   |   |   |   |   |   |   |   |--- order_dow <= 2.50
|   |   |   |   |   |   |   |   |   |   |   |--- class: 1.0
|   |   |   |   |   |   |   |   |   |   |--- order_dow >  2.50
|   |   |   |   |   |   |   |   |   |   |   |--- truncated branch of depth 5
|   |   |   |   |   |   |   |   |--- is_daytime >  0.50
|   |   |   |   |   |   |   |   |   |--- days_since_prior_order <= 1.50
|   |   |   |   |   |   |   |   |   |   |--- order_dow <= 4.00
|   |   |   |   |   |   |   |   |   |   |   |--- class: 1.0
|   |   |   |   |   |   |   |   |   |   |--- order_dow >  4.00
|   |   |   |   |   |   |   |   |   |   |   |--- truncated branch of depth 2
|   |   |   |   |   |   |   |   |   |--- days_since_prior_order >  1.50
|   |   |   |   |   |   |   |   |   |   |--- order_dow <= 4.50
|   |   |   |   |   |   |   |   |   |   |   |--- truncated branch of depth 11
|   |   |   |   |   |   |   |   |   |   |--- order_dow >  4.50
|   |   |   |   |   |   |   |   |   |   |   |--- truncated branch of depth 8
|   |   |   |   |   |   |   |--- order_number >  7.50
|   |   |   |   |   |   |   |   |--- order_dow <= 1.50
|   |   |   |   |   |   |   |   |   |--- days_since_prior_order <= 12.50
|   |   |   |   |   |   |   |   |   |   |--- days_since_prior_order <= 7.50
|   |   |   |   |   |   |   |   |   |   |   |--- truncated branch of depth 6
|   |   |   |   |   |   |   |   |   |   |--- days_since_prior_order >  7.50
|   |   |   |   |   |   |   |   |   |   |   |--- truncated branch of depth 4
|   |   |   |   |   |   |   |   |   |--- days_since_prior_order >  12.50
|   |   |   |   |   |   |   |   |   |   |--- days_since_prior_order <= 15.50
|   |   |   |   |   |   |   |   |   |   |   |--- truncated branch of depth 4
|   |   |   |   |   |   |   |   |   |   |--- days_since_prior_order >  15.50
|   |   |   |   |   |   |   |   |   |   |   |--- truncated branch of depth 9
|   |   |   |   |   |   |   |   |--- order_dow >  1.50
|   |   |   |   |   |   |   |   |   |--- order_number <= 8.50
|   |   |   |   |   |   |   |   |   |   |--- order_dow <= 2.50
|   |   |   |   |   |   |   |   |   |   |   |--- truncated branch of depth 6
|   |   |   |   |   |   |   |   |   |   |--- order_dow >  2.50
|   |   |   |   |   |   |   |   |   |   |   |--- truncated branch of depth 9
|   |   |   |   |   |   |   |   |   |--- order_number >  8.50
|   |   |   |   |   |   |   |   |   |   |--- order_number <= 11.50
|   |   |   |   |   |   |   |   |   |   |   |--- truncated branch of depth 13
|   |   |   |   |   |   |   |   |   |   |--- order_number >  11.50
|   |   |   |   |   |   |   |   |   |   |   |--- truncated branch of depth 9
|   |   |--- add_to_cart_order >  5.50
|   |   |   |--- department_id_is_4 <= 0.50
|   |   |   |   |--- days_since_prior_order <= 29.50
|   |   |   |   |   |--- department_id_is_21 <= 0.50
|   |   |   |   |   |   |--- days_since_prior_order <= 0.50
|   |   |   |   |   |   |   |--- order_number <= 11.50
|   |   |   |   |   |   |   |   |--- add_to_cart_order <= 9.50
|   |   |   |   |   |   |   |   |   |--- order_number <= 7.50
|   |   |   |   |   |   |   |   |   |   |--- department_id_is_19 <= 0.50
|   |   |   |   |   |   |   |   |   |   |   |--- truncated branch of depth 20
|   |   |   |   |   |   |   |   |   |   |--- department_id_is_19 >  0.50
|   |   |   |   |   |   |   |   |   |   |   |--- truncated branch of depth 10
|   |   |   |   |   |   |   |   |   |--- order_number >  7.50
|   |   |   |   |   |   |   |   |   |   |--- department_id_is_17 <= 0.50
|   |   |   |   |   |   |   |   |   |   |   |--- truncated branch of depth 17
|   |   |   |   |   |   |   |   |   |   |--- department_id_is_17 >  0.50
|   |   |   |   |   |   |   |   |   |   |   |--- class: 1.0
|   |   |   |   |   |   |   |   |--- add_to_cart_order >  9.50
|   |   |   |   |   |   |   |   |   |--- department_id_is_2 <= 0.50
|   |   |   |   |   |   |   |   |   |   |--- department_id_is_13 <= 0.50
|   |   |   |   |   |   |   |   |   |   |   |--- truncated branch of depth 22
|   |   |   |   |   |   |   |   |   |   |--- department_id_is_13 >  0.50
|   |   |   |   |   |   |   |   |   |   |   |--- truncated branch of depth 13
|   |   |   |   |   |   |   |   |   |--- department_id_is_2 >  0.50
|   |   |   |   |   |   |   |   |   |   |--- order_number <= 9.00
|   |   |   |   |   |   |   |   |   |   |   |--- class: 0.0
|   |   |   |   |   |   |   |   |   |   |--- order_number >  9.00
|   |   |   |   |   |   |   |   |   |   |   |--- class: 1.0
|   |   |   |   |   |   |   |--- order_number >  11.50
|   |   |   |   |   |   |   |   |--- department_id_is_2 <= 0.50
|   |   |   |   |   |   |   |   |   |--- order_dow <= 2.50
|   |   |   |   |   |   |   |   |   |   |--- order_dow <= 1.50
|   |   |   |   |   |   |   |   |   |   |   |--- truncated branch of depth 4
|   |   |   |   |   |   |   |   |   |   |--- order_dow >  1.50
|   |   |   |   |   |   |   |   |   |   |   |--- truncated branch of depth 3
|   |   |   |   |   |   |   |   |   |--- order_dow >  2.50
|   |   |   |   |   |   |   |   |   |   |--- department_id_is_3 <= 0.50
|   |   |   |   |   |   |   |   |   |   |   |--- truncated branch of depth 14
|   |   |   |   |   |   |   |   |   |   |--- department_id_is_3 >  0.50
|   |   |   |   |   |   |   |   |   |   |   |--- truncated branch of depth 2
|   |   |   |   |   |   |   |   |--- department_id_is_2 >  0.50
|   |   |   |   |   |   |   |   |   |--- class: 0.0
|   |   |   |   |   |   |--- days_since_prior_order >  0.50
|   |   |   |   |   |   |   |--- order_number <= 7.50
|   |   |   |   |   |   |   |   |--- department_id_is_13 <= 0.50
|   |   |   |   |   |   |   |   |   |--- department_id_is_17 <= 0.50
|   |   |   |   |   |   |   |   |   |   |--- department_id_is_2 <= 0.50
|   |   |   |   |   |   |   |   |   |   |   |--- truncated branch of depth 37
|   |   |   |   |   |   |   |   |   |   |--- department_id_is_2 >  0.50
|   |   |   |   |   |   |   |   |   |   |   |--- truncated branch of depth 12
|   |   |   |   |   |   |   |   |   |--- department_id_is_17 >  0.50
|   |   |   |   |   |   |   |   |   |   |--- order_number <= 4.50
|   |   |   |   |   |   |   |   |   |   |   |--- truncated branch of depth 21
|   |   |   |   |   |   |   |   |   |   |--- order_number >  4.50
|   |   |   |   |   |   |   |   |   |   |   |--- truncated branch of depth 21
|   |   |   |   |   |   |   |   |--- department_id_is_13 >  0.50
|   |   |   |   |   |   |   |   |   |--- order_number <= 5.50
|   |   |   |   |   |   |   |   |   |   |--- add_to_cart_order <= 10.50
|   |   |   |   |   |   |   |   |   |   |   |--- truncated branch of depth 23
|   |   |   |   |   |   |   |   |   |   |--- add_to_cart_order >  10.50
|   |   |   |   |   |   |   |   |   |   |   |--- truncated branch of depth 21
|   |   |   |   |   |   |   |   |   |--- order_number >  5.50
|   |   |   |   |   |   |   |   |   |   |--- order_number <= 6.50
|   |   |   |   |   |   |   |   |   |   |   |--- truncated branch of depth 20
|   |   |   |   |   |   |   |   |   |   |--- order_number >  6.50
|   |   |   |   |   |   |   |   |   |   |   |--- truncated branch of depth 17
|   |   |   |   |   |   |   |--- order_number >  7.50
|   |   |   |   |   |   |   |   |--- department_id_is_20 <= 0.50
|   |   |   |   |   |   |   |   |   |--- days_since_prior_order <= 6.50
|   |   |   |   |   |   |   |   |   |   |--- add_to_cart_order <= 16.50
|   |   |   |   |   |   |   |   |   |   |   |--- truncated branch of depth 33
|   |   |   |   |   |   |   |   |   |   |--- add_to_cart_order >  16.50
|   |   |   |   |   |   |   |   |   |   |   |--- truncated branch of depth 24
|   |   |   |   |   |   |   |   |   |--- days_since_prior_order >  6.50
|   |   |   |   |   |   |   |   |   |   |--- department_id_is_13 <= 0.50
|   |   |   |   |   |   |   |   |   |   |   |--- truncated branch of depth 38
|   |   |   |   |   |   |   |   |   |   |--- department_id_is_13 >  0.50
|   |   |   |   |   |   |   |   |   |   |   |--- truncated branch of depth 30
|   |   |   |   |   |   |   |   |--- department_id_is_20 >  0.50
|   |   |   |   |   |   |   |   |   |--- order_dow <= 2.50
|   |   |   |   |   |   |   |   |   |   |--- days_since_prior_order <= 27.50
|   |   |   |   |   |   |   |   |   |   |   |--- truncated branch of depth 21
|   |   |   |   |   |   |   |   |   |   |--- days_since_prior_order >  27.50
|   |   |   |   |   |   |   |   |   |   |   |--- truncated branch of depth 12
|   |   |   |   |   |   |   |   |   |--- order_dow >  2.50
|   |   |   |   |   |   |   |   |   |   |--- add_to_cart_order <= 15.50
|   |   |   |   |   |   |   |   |   |   |   |--- truncated branch of depth 17
|   |   |   |   |   |   |   |   |   |   |--- add_to_cart_order >  15.50
|   |   |   |   |   |   |   |   |   |   |   |--- truncated branch of depth 16
|   |   |   |   |   |--- department_id_is_21 >  0.50
|   |   |   |   |   |   |--- add_to_cart_order <= 14.50
|   |   |   |   |   |   |   |--- add_to_cart_order <= 6.50
|   |   |   |   |   |   |   |   |--- order_dow <= 0.50
|   |   |   |   |   |   |   |   |   |--- is_daytime <= 0.50
|   |   |   |   |   |   |   |   |   |   |--- class: 1.0
|   |   |   |   |   |   |   |   |   |--- is_daytime >  0.50
|   |   |   |   |   |   |   |   |   |   |--- days_since_prior_order <= 8.50
|   |   |   |   |   |   |   |   |   |   |   |--- truncated branch of depth 4
|   |   |   |   |   |   |   |   |   |   |--- days_since_prior_order >  8.50
|   |   |   |   |   |   |   |   |   |   |   |--- class: 0.0
|   |   |   |   |   |   |   |   |--- order_dow >  0.50
|   |   |   |   |   |   |   |   |   |--- is_daytime <= 0.50
|   |   |   |   |   |   |   |   |   |   |--- order_number <= 5.50
|   |   |   |   |   |   |   |   |   |   |   |--- class: 0.0
|   |   |   |   |   |   |   |   |   |   |--- order_number >  5.50
|   |   |   |   |   |   |   |   |   |   |   |--- truncated branch of depth 4
|   |   |   |   |   |   |   |   |   |--- is_daytime >  0.50
|   |   |   |   |   |   |   |   |   |   |--- order_dow <= 1.50
|   |   |   |   |   |   |   |   |   |   |   |--- truncated branch of depth 6
|   |   |   |   |   |   |   |   |   |   |--- order_dow >  1.50
|   |   |   |   |   |   |   |   |   |   |   |--- truncated branch of depth 9
|   |   |   |   |   |   |   |--- add_to_cart_order >  6.50
|   |   |   |   |   |   |   |   |--- days_since_prior_order <= 2.50
|   |   |   |   |   |   |   |   |   |--- days_since_prior_order <= 0.50
|   |   |   |   |   |   |   |   |   |   |--- class: 1.0
|   |   |   |   |   |   |   |   |   |--- days_since_prior_order >  0.50
|   |   |   |   |   |   |   |   |   |   |--- order_number <= 5.50
|   |   |   |   |   |   |   |   |   |   |   |--- truncated branch of depth 4
|   |   |   |   |   |   |   |   |   |   |--- order_number >  5.50
|   |   |   |   |   |   |   |   |   |   |   |--- truncated branch of depth 5
|   |   |   |   |   |   |   |   |--- days_since_prior_order >  2.50
|   |   |   |   |   |   |   |   |   |--- order_dow <= 5.50
|   |   |   |   |   |   |   |   |   |   |--- add_to_cart_order <= 8.50
|   |   |   |   |   |   |   |   |   |   |   |--- truncated branch of depth 14
|   |   |   |   |   |   |   |   |   |   |--- add_to_cart_order >  8.50
|   |   |   |   |   |   |   |   |   |   |   |--- truncated branch of depth 18
|   |   |   |   |   |   |   |   |   |--- order_dow >  5.50
|   |   |   |   |   |   |   |   |   |   |--- days_since_prior_order <= 28.50
|   |   |   |   |   |   |   |   |   |   |   |--- truncated branch of depth 13
|   |   |   |   |   |   |   |   |   |   |--- days_since_prior_order >  28.50
|   |   |   |   |   |   |   |   |   |   |   |--- truncated branch of depth 3
|   |   |   |   |   |   |--- add_to_cart_order >  14.50
|   |   |   |   |   |   |   |--- days_since_prior_order <= 20.50
|   |   |   |   |   |   |   |   |--- order_dow <= 1.50
|   |   |   |   |   |   |   |   |   |--- order_number <= 7.50
|   |   |   |   |   |   |   |   |   |   |--- is_daytime <= 0.50
|   |   |   |   |   |   |   |   |   |   |   |--- truncated branch of depth 3
|   |   |   |   |   |   |   |   |   |   |--- is_daytime >  0.50
|   |   |   |   |   |   |   |   |   |   |   |--- truncated branch of depth 8
|   |   |   |   |   |   |   |   |   |--- order_number >  7.50
|   |   |   |   |   |   |   |   |   |   |--- order_number <= 11.50
|   |   |   |   |   |   |   |   |   |   |   |--- truncated branch of depth 9
|   |   |   |   |   |   |   |   |   |   |--- order_number >  11.50
|   |   |   |   |   |   |   |   |   |   |   |--- truncated branch of depth 4
|   |   |   |   |   |   |   |   |--- order_dow >  1.50
|   |   |   |   |   |   |   |   |   |--- order_number <= 8.50
|   |   |   |   |   |   |   |   |   |   |--- order_dow <= 2.50
|   |   |   |   |   |   |   |   |   |   |   |--- class: 0.0
|   |   |   |   |   |   |   |   |   |   |--- order_dow >  2.50
|   |   |   |   |   |   |   |   |   |   |   |--- truncated branch of depth 10
|   |   |   |   |   |   |   |   |   |--- order_number >  8.50
|   |   |   |   |   |   |   |   |   |   |--- add_to_cart_order <= 17.50
|   |   |   |   |   |   |   |   |   |   |   |--- truncated branch of depth 6
|   |   |   |   |   |   |   |   |   |   |--- add_to_cart_order >  17.50
|   |   |   |   |   |   |   |   |   |   |   |--- truncated branch of depth 8
|   |   |   |   |   |   |   |--- days_since_prior_order >  20.50
|   |   |   |   |   |   |   |   |--- order_dow <= 1.50
|   |   |   |   |   |   |   |   |   |--- order_number <= 5.50
|   |   |   |   |   |   |   |   |   |   |--- days_since_prior_order <= 25.50
|   |   |   |   |   |   |   |   |   |   |   |--- class: 0.0
|   |   |   |   |   |   |   |   |   |   |--- days_since_prior_order >  25.50
|   |   |   |   |   |   |   |   |   |   |   |--- truncated branch of depth 3
|   |   |   |   |   |   |   |   |   |--- order_number >  5.50
|   |   |   |   |   |   |   |   |   |   |--- days_since_prior_order <= 24.00
|   |   |   |   |   |   |   |   |   |   |   |--- class: 0.0
|   |   |   |   |   |   |   |   |   |   |--- days_since_prior_order >  24.00
|   |   |   |   |   |   |   |   |   |   |   |--- truncated branch of depth 7
|   |   |   |   |   |   |   |   |--- order_dow >  1.50
|   |   |   |   |   |   |   |   |   |--- class: 0.0
|   |   |   |   |--- days_since_prior_order >  29.50
|   |   |   |   |   |--- order_number <= 6.50
|   |   |   |   |   |   |--- department_id_is_11 <= 0.50
|   |   |   |   |   |   |   |--- department_id_is_2 <= 0.50
|   |   |   |   |   |   |   |   |--- department_id_is_13 <= 0.50
|   |   |   |   |   |   |   |   |   |--- add_to_cart_order <= 12.50
|   |   |   |   |   |   |   |   |   |   |--- department_id_is_17 <= 0.50
|   |   |   |   |   |   |   |   |   |   |   |--- truncated branch of depth 27
|   |   |   |   |   |   |   |   |   |   |--- department_id_is_17 >  0.50
|   |   |   |   |   |   |   |   |   |   |   |--- truncated branch of depth 13
|   |   |   |   |   |   |   |   |   |--- add_to_cart_order >  12.50
|   |   |   |   |   |   |   |   |   |   |--- add_to_cart_order <= 25.50
|   |   |   |   |   |   |   |   |   |   |   |--- truncated branch of depth 28
|   |   |   |   |   |   |   |   |   |   |--- add_to_cart_order >  25.50
|   |   |   |   |   |   |   |   |   |   |   |--- truncated branch of depth 28
|   |   |   |   |   |   |   |   |--- department_id_is_13 >  0.50
|   |   |   |   |   |   |   |   |   |--- order_dow <= 4.50
|   |   |   |   |   |   |   |   |   |   |--- add_to_cart_order <= 14.50
|   |   |   |   |   |   |   |   |   |   |   |--- truncated branch of depth 13
|   |   |   |   |   |   |   |   |   |   |--- add_to_cart_order >  14.50
|   |   |   |   |   |   |   |   |   |   |   |--- truncated branch of depth 16
|   |   |   |   |   |   |   |   |   |--- order_dow >  4.50
|   |   |   |   |   |   |   |   |   |   |--- is_daytime <= 0.50
|   |   |   |   |   |   |   |   |   |   |   |--- truncated branch of depth 8
|   |   |   |   |   |   |   |   |   |   |--- is_daytime >  0.50
|   |   |   |   |   |   |   |   |   |   |   |--- truncated branch of depth 11
|   |   |   |   |   |   |   |--- department_id_is_2 >  0.50
|   |   |   |   |   |   |   |   |--- order_dow <= 1.50
|   |   |   |   |   |   |   |   |   |--- order_dow <= 0.50
|   |   |   |   |   |   |   |   |   |   |--- class: 0.0
|   |   |   |   |   |   |   |   |   |--- order_dow >  0.50
|   |   |   |   |   |   |   |   |   |   |--- add_to_cart_order <= 21.00
|   |   |   |   |   |   |   |   |   |   |   |--- class: 0.0
|   |   |   |   |   |   |   |   |   |   |--- add_to_cart_order >  21.00
|   |   |   |   |   |   |   |   |   |   |   |--- class: 1.0
|   |   |   |   |   |   |   |   |--- order_dow >  1.50
|   |   |   |   |   |   |   |   |   |--- order_dow <= 3.50
|   |   |   |   |   |   |   |   |   |   |--- class: 0.0
|   |   |   |   |   |   |   |   |   |--- order_dow >  3.50
|   |   |   |   |   |   |   |   |   |   |--- order_dow <= 4.50
|   |   |   |   |   |   |   |   |   |   |   |--- truncated branch of depth 2
|   |   |   |   |   |   |   |   |   |   |--- order_dow >  4.50
|   |   |   |   |   |   |   |   |   |   |   |--- class: 0.0
|   |   |   |   |   |   |--- department_id_is_11 >  0.50
|   |   |   |   |   |   |   |--- add_to_cart_order <= 13.50
|   |   |   |   |   |   |   |   |--- order_dow <= 4.50
|   |   |   |   |   |   |   |   |   |--- is_daytime <= 0.50
|   |   |   |   |   |   |   |   |   |   |--- add_to_cart_order <= 10.50
|   |   |   |   |   |   |   |   |   |   |   |--- truncated branch of depth 6
|   |   |   |   |   |   |   |   |   |   |--- add_to_cart_order >  10.50
|   |   |   |   |   |   |   |   |   |   |   |--- truncated branch of depth 5
|   |   |   |   |   |   |   |   |   |--- is_daytime >  0.50
|   |   |   |   |   |   |   |   |   |   |--- order_dow <= 2.50
|   |   |   |   |   |   |   |   |   |   |   |--- truncated branch of depth 10
|   |   |   |   |   |   |   |   |   |   |--- order_dow >  2.50
|   |   |   |   |   |   |   |   |   |   |   |--- truncated branch of depth 9
|   |   |   |   |   |   |   |   |--- order_dow >  4.50
|   |   |   |   |   |   |   |   |   |--- order_number <= 5.50
|   |   |   |   |   |   |   |   |   |   |--- is_daytime <= 0.50
|   |   |   |   |   |   |   |   |   |   |   |--- truncated branch of depth 3
|   |   |   |   |   |   |   |   |   |   |--- is_daytime >  0.50
|   |   |   |   |   |   |   |   |   |   |   |--- truncated branch of depth 8
|   |   |   |   |   |   |   |   |   |--- order_number >  5.50
|   |   |   |   |   |   |   |   |   |   |--- is_daytime <= 0.50
|   |   |   |   |   |   |   |   |   |   |   |--- truncated branch of depth 3
|   |   |   |   |   |   |   |   |   |   |--- is_daytime >  0.50
|   |   |   |   |   |   |   |   |   |   |   |--- truncated branch of depth 7
|   |   |   |   |   |   |   |--- add_to_cart_order >  13.50
|   |   |   |   |   |   |   |   |--- order_dow <= 3.50
|   |   |   |   |   |   |   |   |   |--- is_daytime <= 0.50
|   |   |   |   |   |   |   |   |   |   |--- class: 0.0
|   |   |   |   |   |   |   |   |   |--- is_daytime >  0.50
|   |   |   |   |   |   |   |   |   |   |--- add_to_cart_order <= 15.50
|   |   |   |   |   |   |   |   |   |   |   |--- truncated branch of depth 5
|   |   |   |   |   |   |   |   |   |   |--- add_to_cart_order >  15.50
|   |   |   |   |   |   |   |   |   |   |   |--- truncated branch of depth 8
|   |   |   |   |   |   |   |   |--- order_dow >  3.50
|   |   |   |   |   |   |   |   |   |--- add_to_cart_order <= 28.50
|   |   |   |   |   |   |   |   |   |   |--- order_number <= 5.50
|   |   |   |   |   |   |   |   |   |   |   |--- truncated branch of depth 6
|   |   |   |   |   |   |   |   |   |   |--- order_number >  5.50
|   |   |   |   |   |   |   |   |   |   |   |--- truncated branch of depth 7
|   |   |   |   |   |   |   |   |   |--- add_to_cart_order >  28.50
|   |   |   |   |   |   |   |   |   |   |--- is_daytime <= 0.50
|   |   |   |   |   |   |   |   |   |   |   |--- truncated branch of depth 2
|   |   |   |   |   |   |   |   |   |   |--- is_daytime >  0.50
|   |   |   |   |   |   |   |   |   |   |   |--- truncated branch of depth 5
|   |   |   |   |   |--- order_number >  6.50
|   |   |   |   |   |   |--- department_id_is_13 <= 0.50
|   |   |   |   |   |   |   |--- department_id_is_21 <= 0.50
|   |   |   |   |   |   |   |   |--- department_id_is_17 <= 0.50
|   |   |   |   |   |   |   |   |   |--- order_number <= 8.50
|   |   |   |   |   |   |   |   |   |   |--- department_id_is_11 <= 0.50
|   |   |   |   |   |   |   |   |   |   |   |--- truncated branch of depth 30
|   |   |   |   |   |   |   |   |   |   |--- department_id_is_11 >  0.50
|   |   |   |   |   |   |   |   |   |   |   |--- truncated branch of depth 14
|   |   |   |   |   |   |   |   |   |--- order_number >  8.50
|   |   |   |   |   |   |   |   |   |   |--- add_to_cart_order <= 9.50
|   |   |   |   |   |   |   |   |   |   |   |--- truncated branch of depth 25
|   |   |   |   |   |   |   |   |   |   |--- add_to_cart_order >  9.50
|   |   |   |   |   |   |   |   |   |   |   |--- truncated branch of depth 32
|   |   |   |   |   |   |   |   |--- department_id_is_17 >  0.50
|   |   |   |   |   |   |   |   |   |--- order_dow <= 3.50
|   |   |   |   |   |   |   |   |   |   |--- add_to_cart_order <= 6.50
|   |   |   |   |   |   |   |   |   |   |   |--- truncated branch of depth 8
|   |   |   |   |   |   |   |   |   |   |--- add_to_cart_order >  6.50
|   |   |   |   |   |   |   |   |   |   |   |--- truncated branch of depth 17
|   |   |   |   |   |   |   |   |   |--- order_dow >  3.50
|   |   |   |   |   |   |   |   |   |   |--- order_number <= 9.50
|   |   |   |   |   |   |   |   |   |   |   |--- truncated branch of depth 14
|   |   |   |   |   |   |   |   |   |   |--- order_number >  9.50
|   |   |   |   |   |   |   |   |   |   |   |--- truncated branch of depth 14
|   |   |   |   |   |   |   |--- department_id_is_21 >  0.50
|   |   |   |   |   |   |   |   |--- is_daytime <= 0.50
|   |   |   |   |   |   |   |   |   |--- order_number <= 10.50
|   |   |   |   |   |   |   |   |   |   |--- add_to_cart_order <= 14.50
|   |   |   |   |   |   |   |   |   |   |   |--- class: 0.0
|   |   |   |   |   |   |   |   |   |   |--- add_to_cart_order >  14.50
|   |   |   |   |   |   |   |   |   |   |   |--- truncated branch of depth 3
|   |   |   |   |   |   |   |   |   |--- order_number >  10.50
|   |   |   |   |   |   |   |   |   |   |--- class: 0.0
|   |   |   |   |   |   |   |   |--- is_daytime >  0.50
|   |   |   |   |   |   |   |   |   |--- order_number <= 7.50
|   |   |   |   |   |   |   |   |   |   |--- order_dow <= 2.50
|   |   |   |   |   |   |   |   |   |   |   |--- truncated branch of depth 4
|   |   |   |   |   |   |   |   |   |   |--- order_dow >  2.50
|   |   |   |   |   |   |   |   |   |   |   |--- truncated branch of depth 5
|   |   |   |   |   |   |   |   |   |--- order_number >  7.50
|   |   |   |   |   |   |   |   |   |   |--- add_to_cart_order <= 9.50
|   |   |   |   |   |   |   |   |   |   |   |--- truncated branch of depth 8
|   |   |   |   |   |   |   |   |   |   |--- add_to_cart_order >  9.50
|   |   |   |   |   |   |   |   |   |   |   |--- truncated branch of depth 11
|   |   |   |   |   |   |--- department_id_is_13 >  0.50
|   |   |   |   |   |   |   |--- add_to_cart_order <= 13.50
|   |   |   |   |   |   |   |   |--- is_daytime <= 0.50
|   |   |   |   |   |   |   |   |   |--- add_to_cart_order <= 10.50
|   |   |   |   |   |   |   |   |   |   |--- order_number <= 7.50
|   |   |   |   |   |   |   |   |   |   |   |--- truncated branch of depth 7
|   |   |   |   |   |   |   |   |   |   |--- order_number >  7.50
|   |   |   |   |   |   |   |   |   |   |   |--- truncated branch of depth 11
|   |   |   |   |   |   |   |   |   |--- add_to_cart_order >  10.50
|   |   |   |   |   |   |   |   |   |   |--- order_number <= 11.50
|   |   |   |   |   |   |   |   |   |   |   |--- truncated branch of depth 7
|   |   |   |   |   |   |   |   |   |   |--- order_number >  11.50
|   |   |   |   |   |   |   |   |   |   |   |--- class: 0.0
|   |   |   |   |   |   |   |   |--- is_daytime >  0.50
|   |   |   |   |   |   |   |   |   |--- order_number <= 10.50
|   |   |   |   |   |   |   |   |   |   |--- order_number <= 7.50
|   |   |   |   |   |   |   |   |   |   |   |--- truncated branch of depth 11
|   |   |   |   |   |   |   |   |   |   |--- order_number >  7.50
|   |   |   |   |   |   |   |   |   |   |   |--- truncated branch of depth 13
|   |   |   |   |   |   |   |   |   |--- order_number >  10.50
|   |   |   |   |   |   |   |   |   |   |--- order_number <= 11.50
|   |   |   |   |   |   |   |   |   |   |   |--- truncated branch of depth 11
|   |   |   |   |   |   |   |   |   |   |--- order_number >  11.50
|   |   |   |   |   |   |   |   |   |   |   |--- truncated branch of depth 11
|   |   |   |   |   |   |   |--- add_to_cart_order >  13.50
|   |   |   |   |   |   |   |   |--- order_dow <= 1.50
|   |   |   |   |   |   |   |   |   |--- order_dow <= 0.50
|   |   |   |   |   |   |   |   |   |   |--- add_to_cart_order <= 16.50
|   |   |   |   |   |   |   |   |   |   |   |--- truncated branch of depth 7
|   |   |   |   |   |   |   |   |   |   |--- add_to_cart_order >  16.50
|   |   |   |   |   |   |   |   |   |   |   |--- truncated branch of depth 12
|   |   |   |   |   |   |   |   |   |--- order_dow >  0.50
|   |   |   |   |   |   |   |   |   |   |--- add_to_cart_order <= 28.50
|   |   |   |   |   |   |   |   |   |   |   |--- truncated branch of depth 10
|   |   |   |   |   |   |   |   |   |   |--- add_to_cart_order >  28.50
|   |   |   |   |   |   |   |   |   |   |   |--- truncated branch of depth 11
|   |   |   |   |   |   |   |   |--- order_dow >  1.50
|   |   |   |   |   |   |   |   |   |--- order_number <= 11.50
|   |   |   |   |   |   |   |   |   |   |--- add_to_cart_order <= 34.50
|   |   |   |   |   |   |   |   |   |   |   |--- truncated branch of depth 19
|   |   |   |   |   |   |   |   |   |   |--- add_to_cart_order >  34.50
|   |   |   |   |   |   |   |   |   |   |   |--- truncated branch of depth 8
|   |   |   |   |   |   |   |   |   |--- order_number >  11.50
|   |   |   |   |   |   |   |   |   |   |--- is_daytime <= 0.50
|   |   |   |   |   |   |   |   |   |   |   |--- class: 1.0
|   |   |   |   |   |   |   |   |   |   |--- is_daytime >  0.50
|   |   |   |   |   |   |   |   |   |   |   |--- truncated branch of depth 11
|   |   |   |--- department_id_is_4 >  0.50
|   |   |   |   |--- order_number <= 6.50
|   |   |   |   |   |--- order_number <= 4.50
|   |   |   |   |   |   |--- add_to_cart_order <= 8.50
|   |   |   |   |   |   |   |--- add_to_cart_order <= 7.50
|   |   |   |   |   |   |   |   |--- order_dow <= 4.50
|   |   |   |   |   |   |   |   |   |--- order_dow <= 1.50
|   |   |   |   |   |   |   |   |   |   |--- add_to_cart_order <= 6.50
|   |   |   |   |   |   |   |   |   |   |   |--- truncated branch of depth 16
|   |   |   |   |   |   |   |   |   |   |--- add_to_cart_order >  6.50
|   |   |   |   |   |   |   |   |   |   |   |--- truncated branch of depth 12
|   |   |   |   |   |   |   |   |   |--- order_dow >  1.50
|   |   |   |   |   |   |   |   |   |   |--- is_daytime <= 0.50
|   |   |   |   |   |   |   |   |   |   |   |--- truncated branch of depth 10
|   |   |   |   |   |   |   |   |   |   |--- is_daytime >  0.50
|   |   |   |   |   |   |   |   |   |   |   |--- truncated branch of depth 16
|   |   |   |   |   |   |   |   |--- order_dow >  4.50
|   |   |   |   |   |   |   |   |   |--- is_daytime <= 0.50
|   |   |   |   |   |   |   |   |   |   |--- add_to_cart_order <= 6.50
|   |   |   |   |   |   |   |   |   |   |   |--- truncated branch of depth 6
|   |   |   |   |   |   |   |   |   |   |--- add_to_cart_order >  6.50
|   |   |   |   |   |   |   |   |   |   |   |--- truncated branch of depth 6
|   |   |   |   |   |   |   |   |   |--- is_daytime >  0.50
|   |   |   |   |   |   |   |   |   |   |--- order_dow <= 5.50
|   |   |   |   |   |   |   |   |   |   |   |--- truncated branch of depth 14
|   |   |   |   |   |   |   |   |   |   |--- order_dow >  5.50
|   |   |   |   |   |   |   |   |   |   |   |--- truncated branch of depth 12
|   |   |   |   |   |   |   |--- add_to_cart_order >  7.50
|   |   |   |   |   |   |   |   |--- is_daytime <= 0.50
|   |   |   |   |   |   |   |   |   |--- order_dow <= 1.50
|   |   |   |   |   |   |   |   |   |   |--- order_dow <= 0.50
|   |   |   |   |   |   |   |   |   |   |   |--- truncated branch of depth 7
|   |   |   |   |   |   |   |   |   |   |--- order_dow >  0.50
|   |   |   |   |   |   |   |   |   |   |   |--- truncated branch of depth 6
|   |   |   |   |   |   |   |   |   |--- order_dow >  1.50
|   |   |   |   |   |   |   |   |   |   |--- order_dow <= 5.50
|   |   |   |   |   |   |   |   |   |   |   |--- truncated branch of depth 8
|   |   |   |   |   |   |   |   |   |   |--- order_dow >  5.50
|   |   |   |   |   |   |   |   |   |   |   |--- truncated branch of depth 5
|   |   |   |   |   |   |   |   |--- is_daytime >  0.50
|   |   |   |   |   |   |   |   |   |--- order_dow <= 3.50
|   |   |   |   |   |   |   |   |   |   |--- order_dow <= 1.50
|   |   |   |   |   |   |   |   |   |   |   |--- truncated branch of depth 12
|   |   |   |   |   |   |   |   |   |   |--- order_dow >  1.50
|   |   |   |   |   |   |   |   |   |   |   |--- truncated branch of depth 11
|   |   |   |   |   |   |   |   |   |--- order_dow >  3.50
|   |   |   |   |   |   |   |   |   |   |--- order_dow <= 5.50
|   |   |   |   |   |   |   |   |   |   |   |--- truncated branch of depth 10
|   |   |   |   |   |   |   |   |   |   |--- order_dow >  5.50
|   |   |   |   |   |   |   |   |   |   |   |--- truncated branch of depth 17
|   |   |   |   |   |   |--- add_to_cart_order >  8.50
|   |   |   |   |   |   |   |--- order_dow <= 2.50
|   |   |   |   |   |   |   |   |--- days_since_prior_order <= 21.50
|   |   |   |   |   |   |   |   |   |--- add_to_cart_order <= 25.50
|   |   |   |   |   |   |   |   |   |   |--- add_to_cart_order <= 24.50
|   |   |   |   |   |   |   |   |   |   |   |--- truncated branch of depth 21
|   |   |   |   |   |   |   |   |   |   |--- add_to_cart_order >  24.50
|   |   |   |   |   |   |   |   |   |   |   |--- truncated branch of depth 5
|   |   |   |   |   |   |   |   |   |--- add_to_cart_order >  25.50
|   |   |   |   |   |   |   |   |   |   |--- order_dow <= 1.50
|   |   |   |   |   |   |   |   |   |   |   |--- truncated branch of depth 9
|   |   |   |   |   |   |   |   |   |   |--- order_dow >  1.50
|   |   |   |   |   |   |   |   |   |   |   |--- truncated branch of depth 8
|   |   |   |   |   |   |   |   |--- days_since_prior_order >  21.50
|   |   |   |   |   |   |   |   |   |--- order_dow <= 1.50
|   |   |   |   |   |   |   |   |   |   |--- days_since_prior_order <= 23.50
|   |   |   |   |   |   |   |   |   |   |   |--- truncated branch of depth 10
|   |   |   |   |   |   |   |   |   |   |--- days_since_prior_order >  23.50
|   |   |   |   |   |   |   |   |   |   |   |--- truncated branch of depth 18
|   |   |   |   |   |   |   |   |   |--- order_dow >  1.50
|   |   |   |   |   |   |   |   |   |   |--- days_since_prior_order <= 23.50
|   |   |   |   |   |   |   |   |   |   |   |--- truncated branch of depth 7
|   |   |   |   |   |   |   |   |   |   |--- days_since_prior_order >  23.50
|   |   |   |   |   |   |   |   |   |   |   |--- truncated branch of depth 12
|   |   |   |   |   |   |   |--- order_dow >  2.50
|   |   |   |   |   |   |   |   |--- days_since_prior_order <= 21.50
|   |   |   |   |   |   |   |   |   |--- days_since_prior_order <= 0.50
|   |   |   |   |   |   |   |   |   |   |--- order_dow <= 5.50
|   |   |   |   |   |   |   |   |   |   |   |--- truncated branch of depth 4
|   |   |   |   |   |   |   |   |   |   |--- order_dow >  5.50
|   |   |   |   |   |   |   |   |   |   |   |--- class: 0.0
|   |   |   |   |   |   |   |   |   |--- days_since_prior_order >  0.50
|   |   |   |   |   |   |   |   |   |   |--- is_daytime <= 0.50
|   |   |   |   |   |   |   |   |   |   |   |--- truncated branch of depth 13
|   |   |   |   |   |   |   |   |   |   |--- is_daytime >  0.50
|   |   |   |   |   |   |   |   |   |   |   |--- truncated branch of depth 17
|   |   |   |   |   |   |   |   |--- days_since_prior_order >  21.50
|   |   |   |   |   |   |   |   |   |--- order_dow <= 3.50
|   |   |   |   |   |   |   |   |   |   |--- is_daytime <= 0.50
|   |   |   |   |   |   |   |   |   |   |   |--- truncated branch of depth 8
|   |   |   |   |   |   |   |   |   |   |--- is_daytime >  0.50
|   |   |   |   |   |   |   |   |   |   |   |--- truncated branch of depth 12
|   |   |   |   |   |   |   |   |   |--- order_dow >  3.50
|   |   |   |   |   |   |   |   |   |   |--- add_to_cart_order <= 13.50
|   |   |   |   |   |   |   |   |   |   |   |--- truncated branch of depth 13
|   |   |   |   |   |   |   |   |   |   |--- add_to_cart_order >  13.50
|   |   |   |   |   |   |   |   |   |   |   |--- truncated branch of depth 15
|   |   |   |   |   |--- order_number >  4.50
|   |   |   |   |   |   |--- order_number <= 5.50
|   |   |   |   |   |   |   |--- order_dow <= 1.50
|   |   |   |   |   |   |   |   |--- is_daytime <= 0.50
|   |   |   |   |   |   |   |   |   |--- days_since_prior_order <= 5.50
|   |   |   |   |   |   |   |   |   |   |--- add_to_cart_order <= 7.50
|   |   |   |   |   |   |   |   |   |   |   |--- class: 0.0
|   |   |   |   |   |   |   |   |   |   |--- add_to_cart_order >  7.50
|   |   |   |   |   |   |   |   |   |   |   |--- truncated branch of depth 7
|   |   |   |   |   |   |   |   |   |--- days_since_prior_order >  5.50
|   |   |   |   |   |   |   |   |   |   |--- add_to_cart_order <= 25.50
|   |   |   |   |   |   |   |   |   |   |   |--- truncated branch of depth 20
|   |   |   |   |   |   |   |   |   |   |--- add_to_cart_order >  25.50
|   |   |   |   |   |   |   |   |   |   |   |--- truncated branch of depth 3
|   |   |   |   |   |   |   |   |--- is_daytime >  0.50
|   |   |   |   |   |   |   |   |   |--- add_to_cart_order <= 9.50
|   |   |   |   |   |   |   |   |   |   |--- add_to_cart_order <= 8.50
|   |   |   |   |   |   |   |   |   |   |   |--- truncated branch of depth 16
|   |   |   |   |   |   |   |   |   |   |--- add_to_cart_order >  8.50
|   |   |   |   |   |   |   |   |   |   |   |--- truncated branch of depth 12
|   |   |   |   |   |   |   |   |   |--- add_to_cart_order >  9.50
|   |   |   |   |   |   |   |   |   |   |--- order_dow <= 0.50
|   |   |   |   |   |   |   |   |   |   |   |--- truncated branch of depth 18
|   |   |   |   |   |   |   |   |   |   |--- order_dow >  0.50
|   |   |   |   |   |   |   |   |   |   |   |--- truncated branch of depth 17
|   |   |   |   |   |   |   |--- order_dow >  1.50
|   |   |   |   |   |   |   |   |--- order_dow <= 5.50
|   |   |   |   |   |   |   |   |   |--- order_dow <= 2.50
|   |   |   |   |   |   |   |   |   |   |--- add_to_cart_order <= 9.50
|   |   |   |   |   |   |   |   |   |   |   |--- truncated branch of depth 17
|   |   |   |   |   |   |   |   |   |   |--- add_to_cart_order >  9.50
|   |   |   |   |   |   |   |   |   |   |   |--- truncated branch of depth 21
|   |   |   |   |   |   |   |   |   |--- order_dow >  2.50
|   |   |   |   |   |   |   |   |   |   |--- is_daytime <= 0.50
|   |   |   |   |   |   |   |   |   |   |   |--- truncated branch of depth 15
|   |   |   |   |   |   |   |   |   |   |--- is_daytime >  0.50
|   |   |   |   |   |   |   |   |   |   |   |--- truncated branch of depth 26
|   |   |   |   |   |   |   |   |--- order_dow >  5.50
|   |   |   |   |   |   |   |   |   |--- add_to_cart_order <= 14.50
|   |   |   |   |   |   |   |   |   |   |--- days_since_prior_order <= 27.50
|   |   |   |   |   |   |   |   |   |   |   |--- truncated branch of depth 16
|   |   |   |   |   |   |   |   |   |   |--- days_since_prior_order >  27.50
|   |   |   |   |   |   |   |   |   |   |   |--- truncated branch of depth 9
|   |   |   |   |   |   |   |   |   |--- add_to_cart_order >  14.50
|   |   |   |   |   |   |   |   |   |   |--- add_to_cart_order <= 52.50
|   |   |   |   |   |   |   |   |   |   |   |--- truncated branch of depth 19
|   |   |   |   |   |   |   |   |   |   |--- add_to_cart_order >  52.50
|   |   |   |   |   |   |   |   |   |   |   |--- class: 1.0
|   |   |   |   |   |   |--- order_number >  5.50
|   |   |   |   |   |   |   |--- order_dow <= 0.50
|   |   |   |   |   |   |   |   |--- add_to_cart_order <= 9.50
|   |   |   |   |   |   |   |   |   |--- is_daytime <= 0.50
|   |   |   |   |   |   |   |   |   |   |--- add_to_cart_order <= 8.50
|   |   |   |   |   |   |   |   |   |   |   |--- truncated branch of depth 10
|   |   |   |   |   |   |   |   |   |   |--- add_to_cart_order >  8.50
|   |   |   |   |   |   |   |   |   |   |   |--- truncated branch of depth 4
|   |   |   |   |   |   |   |   |   |--- is_daytime >  0.50
|   |   |   |   |   |   |   |   |   |   |--- days_since_prior_order <= 15.50
|   |   |   |   |   |   |   |   |   |   |   |--- truncated branch of depth 11
|   |   |   |   |   |   |   |   |   |   |--- days_since_prior_order >  15.50
|   |   |   |   |   |   |   |   |   |   |   |--- truncated branch of depth 11
|   |   |   |   |   |   |   |   |--- add_to_cart_order >  9.50
|   |   |   |   |   |   |   |   |   |--- days_since_prior_order <= 1.50
|   |   |   |   |   |   |   |   |   |   |--- add_to_cart_order <= 10.50
|   |   |   |   |   |   |   |   |   |   |   |--- truncated branch of depth 3
|   |   |   |   |   |   |   |   |   |   |--- add_to_cart_order >  10.50
|   |   |   |   |   |   |   |   |   |   |   |--- truncated branch of depth 3
|   |   |   |   |   |   |   |   |   |--- days_since_prior_order >  1.50
|   |   |   |   |   |   |   |   |   |   |--- add_to_cart_order <= 17.50
|   |   |   |   |   |   |   |   |   |   |   |--- truncated branch of depth 17
|   |   |   |   |   |   |   |   |   |   |--- add_to_cart_order >  17.50
|   |   |   |   |   |   |   |   |   |   |   |--- truncated branch of depth 16
|   |   |   |   |   |   |   |--- order_dow >  0.50
|   |   |   |   |   |   |   |   |--- add_to_cart_order <= 26.50
|   |   |   |   |   |   |   |   |   |--- order_dow <= 3.50
|   |   |   |   |   |   |   |   |   |   |--- add_to_cart_order <= 7.50
|   |   |   |   |   |   |   |   |   |   |   |--- truncated branch of depth 17
|   |   |   |   |   |   |   |   |   |   |--- add_to_cart_order >  7.50
|   |   |   |   |   |   |   |   |   |   |   |--- truncated branch of depth 22
|   |   |   |   |   |   |   |   |   |--- order_dow >  3.50
|   |   |   |   |   |   |   |   |   |   |--- order_dow <= 5.50
|   |   |   |   |   |   |   |   |   |   |   |--- truncated branch of depth 19
|   |   |   |   |   |   |   |   |   |   |--- order_dow >  5.50
|   |   |   |   |   |   |   |   |   |   |   |--- truncated branch of depth 19
|   |   |   |   |   |   |   |   |--- add_to_cart_order >  26.50
|   |   |   |   |   |   |   |   |   |--- is_daytime <= 0.50
|   |   |   |   |   |   |   |   |   |   |--- days_since_prior_order <= 7.00
|   |   |   |   |   |   |   |   |   |   |   |--- class: 0.0
|   |   |   |   |   |   |   |   |   |   |--- days_since_prior_order >  7.00
|   |   |   |   |   |   |   |   |   |   |   |--- truncated branch of depth 7
|   |   |   |   |   |   |   |   |   |--- is_daytime >  0.50
|   |   |   |   |   |   |   |   |   |   |--- add_to_cart_order <= 41.50
|   |   |   |   |   |   |   |   |   |   |   |--- truncated branch of depth 13
|   |   |   |   |   |   |   |   |   |   |--- add_to_cart_order >  41.50
|   |   |   |   |   |   |   |   |   |   |   |--- class: 0.0
|   |   |   |   |--- order_number >  6.50
|   |   |   |   |   |--- order_number <= 8.50
|   |   |   |   |   |   |--- days_since_prior_order <= 23.50
|   |   |   |   |   |   |   |--- add_to_cart_order <= 13.50
|   |   |   |   |   |   |   |   |--- order_dow <= 3.50
|   |   |   |   |   |   |   |   |   |--- add_to_cart_order <= 9.50
|   |   |   |   |   |   |   |   |   |   |--- order_dow <= 2.50
|   |   |   |   |   |   |   |   |   |   |   |--- truncated branch of depth 17
|   |   |   |   |   |   |   |   |   |   |--- order_dow >  2.50
|   |   |   |   |   |   |   |   |   |   |   |--- truncated branch of depth 13
|   |   |   |   |   |   |   |   |   |--- add_to_cart_order >  9.50
|   |   |   |   |   |   |   |   |   |   |--- order_dow <= 0.50
|   |   |   |   |   |   |   |   |   |   |   |--- truncated branch of depth 15
|   |   |   |   |   |   |   |   |   |   |--- order_dow >  0.50
|   |   |   |   |   |   |   |   |   |   |   |--- truncated branch of depth 16
|   |   |   |   |   |   |   |   |--- order_dow >  3.50
|   |   |   |   |   |   |   |   |   |--- days_since_prior_order <= 0.50
|   |   |   |   |   |   |   |   |   |   |--- add_to_cart_order <= 9.50
|   |   |   |   |   |   |   |   |   |   |   |--- truncated branch of depth 5
|   |   |   |   |   |   |   |   |   |   |--- add_to_cart_order >  9.50
|   |   |   |   |   |   |   |   |   |   |   |--- class: 1.0
|   |   |   |   |   |   |   |   |   |--- days_since_prior_order >  0.50
|   |   |   |   |   |   |   |   |   |   |--- add_to_cart_order <= 9.50
|   |   |   |   |   |   |   |   |   |   |   |--- truncated branch of depth 15
|   |   |   |   |   |   |   |   |   |   |--- add_to_cart_order >  9.50
|   |   |   |   |   |   |   |   |   |   |   |--- truncated branch of depth 15
|   |   |   |   |   |   |   |--- add_to_cart_order >  13.50
|   |   |   |   |   |   |   |   |--- days_since_prior_order <= 1.50
|   |   |   |   |   |   |   |   |   |--- add_to_cart_order <= 20.50
|   |   |   |   |   |   |   |   |   |   |--- is_daytime <= 0.50
|   |   |   |   |   |   |   |   |   |   |   |--- truncated branch of depth 5
|   |   |   |   |   |   |   |   |   |   |--- is_daytime >  0.50
|   |   |   |   |   |   |   |   |   |   |   |--- truncated branch of depth 6
|   |   |   |   |   |   |   |   |   |--- add_to_cart_order >  20.50
|   |   |   |   |   |   |   |   |   |   |--- class: 1.0
|   |   |   |   |   |   |   |   |--- days_since_prior_order >  1.50
|   |   |   |   |   |   |   |   |   |--- order_number <= 7.50
|   |   |   |   |   |   |   |   |   |   |--- add_to_cart_order <= 27.50
|   |   |   |   |   |   |   |   |   |   |   |--- truncated branch of depth 20
|   |   |   |   |   |   |   |   |   |   |--- add_to_cart_order >  27.50
|   |   |   |   |   |   |   |   |   |   |   |--- truncated branch of depth 13
|   |   |   |   |   |   |   |   |   |--- order_number >  7.50
|   |   |   |   |   |   |   |   |   |   |--- is_daytime <= 0.50
|   |   |   |   |   |   |   |   |   |   |   |--- truncated branch of depth 16
|   |   |   |   |   |   |   |   |   |   |--- is_daytime >  0.50
|   |   |   |   |   |   |   |   |   |   |   |--- truncated branch of depth 25
|   |   |   |   |   |   |--- days_since_prior_order >  23.50
|   |   |   |   |   |   |   |--- days_since_prior_order <= 29.50
|   |   |   |   |   |   |   |   |--- add_to_cart_order <= 12.50
|   |   |   |   |   |   |   |   |   |--- add_to_cart_order <= 9.50
|   |   |   |   |   |   |   |   |   |   |--- days_since_prior_order <= 25.50
|   |   |   |   |   |   |   |   |   |   |   |--- truncated branch of depth 11
|   |   |   |   |   |   |   |   |   |   |--- days_since_prior_order >  25.50
|   |   |   |   |   |   |   |   |   |   |   |--- truncated branch of depth 13
|   |   |   |   |   |   |   |   |   |--- add_to_cart_order >  9.50
|   |   |   |   |   |   |   |   |   |   |--- is_daytime <= 0.50
|   |   |   |   |   |   |   |   |   |   |   |--- truncated branch of depth 6
|   |   |   |   |   |   |   |   |   |   |--- is_daytime >  0.50
|   |   |   |   |   |   |   |   |   |   |   |--- truncated branch of depth 12
|   |   |   |   |   |   |   |   |--- add_to_cart_order >  12.50
|   |   |   |   |   |   |   |   |   |--- is_daytime <= 0.50
|   |   |   |   |   |   |   |   |   |   |--- add_to_cart_order <= 42.50
|   |   |   |   |   |   |   |   |   |   |   |--- truncated branch of depth 10
|   |   |   |   |   |   |   |   |   |   |--- add_to_cart_order >  42.50
|   |   |   |   |   |   |   |   |   |   |   |--- class: 1.0
|   |   |   |   |   |   |   |   |   |--- is_daytime >  0.50
|   |   |   |   |   |   |   |   |   |   |--- order_number <= 7.50
|   |   |   |   |   |   |   |   |   |   |   |--- truncated branch of depth 12
|   |   |   |   |   |   |   |   |   |   |--- order_number >  7.50
|   |   |   |   |   |   |   |   |   |   |   |--- truncated branch of depth 14
|   |   |   |   |   |   |   |--- days_since_prior_order >  29.50
|   |   |   |   |   |   |   |   |--- is_daytime <= 0.50
|   |   |   |   |   |   |   |   |   |--- order_dow <= 2.50
|   |   |   |   |   |   |   |   |   |   |--- order_dow <= 1.50
|   |   |   |   |   |   |   |   |   |   |   |--- truncated branch of depth 10
|   |   |   |   |   |   |   |   |   |   |--- order_dow >  1.50
|   |   |   |   |   |   |   |   |   |   |   |--- truncated branch of depth 9
|   |   |   |   |   |   |   |   |   |--- order_dow >  2.50
|   |   |   |   |   |   |   |   |   |   |--- order_number <= 7.50
|   |   |   |   |   |   |   |   |   |   |   |--- truncated branch of depth 12
|   |   |   |   |   |   |   |   |   |   |--- order_number >  7.50
|   |   |   |   |   |   |   |   |   |   |   |--- truncated branch of depth 13
|   |   |   |   |   |   |   |   |--- is_daytime >  0.50
|   |   |   |   |   |   |   |   |   |--- order_number <= 7.50
|   |   |   |   |   |   |   |   |   |   |--- add_to_cart_order <= 13.50
|   |   |   |   |   |   |   |   |   |   |   |--- truncated branch of depth 10
|   |   |   |   |   |   |   |   |   |   |--- add_to_cart_order >  13.50
|   |   |   |   |   |   |   |   |   |   |   |--- truncated branch of depth 17
|   |   |   |   |   |   |   |   |   |--- order_number >  7.50
|   |   |   |   |   |   |   |   |   |   |--- order_dow <= 0.50
|   |   |   |   |   |   |   |   |   |   |   |--- truncated branch of depth 10
|   |   |   |   |   |   |   |   |   |   |--- order_dow >  0.50
|   |   |   |   |   |   |   |   |   |   |   |--- truncated branch of depth 15
|   |   |   |   |   |--- order_number >  8.50
|   |   |   |   |   |   |--- add_to_cart_order <= 16.50
|   |   |   |   |   |   |   |--- order_number <= 11.50
|   |   |   |   |   |   |   |   |--- days_since_prior_order <= 27.50
|   |   |   |   |   |   |   |   |   |--- is_daytime <= 0.50
|   |   |   |   |   |   |   |   |   |   |--- add_to_cart_order <= 10.50
|   |   |   |   |   |   |   |   |   |   |   |--- truncated branch of depth 16
|   |   |   |   |   |   |   |   |   |   |--- add_to_cart_order >  10.50
|   |   |   |   |   |   |   |   |   |   |   |--- truncated branch of depth 17
|   |   |   |   |   |   |   |   |   |--- is_daytime >  0.50
|   |   |   |   |   |   |   |   |   |   |--- add_to_cart_order <= 7.50
|   |   |   |   |   |   |   |   |   |   |   |--- truncated branch of depth 17
|   |   |   |   |   |   |   |   |   |   |--- add_to_cart_order >  7.50
|   |   |   |   |   |   |   |   |   |   |   |--- truncated branch of depth 22
|   |   |   |   |   |   |   |   |--- days_since_prior_order >  27.50
|   |   |   |   |   |   |   |   |   |--- days_since_prior_order <= 28.50
|   |   |   |   |   |   |   |   |   |   |--- order_number <= 10.50
|   |   |   |   |   |   |   |   |   |   |   |--- truncated branch of depth 12
|   |   |   |   |   |   |   |   |   |   |--- order_number >  10.50
|   |   |   |   |   |   |   |   |   |   |   |--- truncated branch of depth 8
|   |   |   |   |   |   |   |   |   |--- days_since_prior_order >  28.50
|   |   |   |   |   |   |   |   |   |   |--- add_to_cart_order <= 7.50
|   |   |   |   |   |   |   |   |   |   |   |--- truncated branch of depth 11
|   |   |   |   |   |   |   |   |   |   |--- add_to_cart_order >  7.50
|   |   |   |   |   |   |   |   |   |   |   |--- truncated branch of depth 14
|   |   |   |   |   |   |   |--- order_number >  11.50
|   |   |   |   |   |   |   |   |--- days_since_prior_order <= 11.50
|   |   |   |   |   |   |   |   |   |--- order_dow <= 1.50
|   |   |   |   |   |   |   |   |   |   |--- is_daytime <= 0.50
|   |   |   |   |   |   |   |   |   |   |   |--- truncated branch of depth 9
|   |   |   |   |   |   |   |   |   |   |--- is_daytime >  0.50
|   |   |   |   |   |   |   |   |   |   |   |--- truncated branch of depth 17
|   |   |   |   |   |   |   |   |   |--- order_dow >  1.50
|   |   |   |   |   |   |   |   |   |   |--- is_daytime <= 0.50
|   |   |   |   |   |   |   |   |   |   |   |--- truncated branch of depth 11
|   |   |   |   |   |   |   |   |   |   |--- is_daytime >  0.50
|   |   |   |   |   |   |   |   |   |   |   |--- truncated branch of depth 15
|   |   |   |   |   |   |   |   |--- days_since_prior_order >  11.50
|   |   |   |   |   |   |   |   |   |--- days_since_prior_order <= 14.50
|   |   |   |   |   |   |   |   |   |   |--- is_daytime <= 0.50
|   |   |   |   |   |   |   |   |   |   |   |--- truncated branch of depth 9
|   |   |   |   |   |   |   |   |   |   |--- is_daytime >  0.50
|   |   |   |   |   |   |   |   |   |   |   |--- truncated branch of depth 11
|   |   |   |   |   |   |   |   |   |--- days_since_prior_order >  14.50
|   |   |   |   |   |   |   |   |   |   |--- order_dow <= 1.50
|   |   |   |   |   |   |   |   |   |   |   |--- truncated branch of depth 15
|   |   |   |   |   |   |   |   |   |   |--- order_dow >  1.50
|   |   |   |   |   |   |   |   |   |   |   |--- truncated branch of depth 16
|   |   |   |   |   |   |--- add_to_cart_order >  16.50
|   |   |   |   |   |   |   |--- days_since_prior_order <= 13.50
|   |   |   |   |   |   |   |   |--- days_since_prior_order <= 0.50
|   |   |   |   |   |   |   |   |   |--- is_daytime <= 0.50
|   |   |   |   |   |   |   |   |   |   |--- class: 1.0
|   |   |   |   |   |   |   |   |   |--- is_daytime >  0.50
|   |   |   |   |   |   |   |   |   |   |--- add_to_cart_order <= 23.50
|   |   |   |   |   |   |   |   |   |   |   |--- truncated branch of depth 3
|   |   |   |   |   |   |   |   |   |   |--- add_to_cart_order >  23.50
|   |   |   |   |   |   |   |   |   |   |   |--- class: 1.0
|   |   |   |   |   |   |   |   |--- days_since_prior_order >  0.50
|   |   |   |   |   |   |   |   |   |--- order_number <= 11.50
|   |   |   |   |   |   |   |   |   |   |--- days_since_prior_order <= 9.50
|   |   |   |   |   |   |   |   |   |   |   |--- truncated branch of depth 19
|   |   |   |   |   |   |   |   |   |   |--- days_since_prior_order >  9.50
|   |   |   |   |   |   |   |   |   |   |   |--- truncated branch of depth 14
|   |   |   |   |   |   |   |   |   |--- order_number >  11.50
|   |   |   |   |   |   |   |   |   |   |--- add_to_cart_order <= 24.50
|   |   |   |   |   |   |   |   |   |   |   |--- truncated branch of depth 16
|   |   |   |   |   |   |   |   |   |   |--- add_to_cart_order >  24.50
|   |   |   |   |   |   |   |   |   |   |   |--- truncated branch of depth 12
|   |   |   |   |   |   |   |--- days_since_prior_order >  13.50
|   |   |   |   |   |   |   |   |--- add_to_cart_order <= 49.50
|   |   |   |   |   |   |   |   |   |--- days_since_prior_order <= 26.50
|   |   |   |   |   |   |   |   |   |   |--- is_daytime <= 0.50
|   |   |   |   |   |   |   |   |   |   |   |--- truncated branch of depth 13
|   |   |   |   |   |   |   |   |   |   |--- is_daytime >  0.50
|   |   |   |   |   |   |   |   |   |   |   |--- truncated branch of depth 21
|   |   |   |   |   |   |   |   |   |--- days_since_prior_order >  26.50
|   |   |   |   |   |   |   |   |   |   |--- add_to_cart_order <= 22.50
|   |   |   |   |   |   |   |   |   |   |   |--- truncated branch of depth 16
|   |   |   |   |   |   |   |   |   |   |--- add_to_cart_order >  22.50
|   |   |   |   |   |   |   |   |   |   |   |--- truncated branch of depth 19
|   |   |   |   |   |   |   |   |--- add_to_cart_order >  49.50
|   |   |   |   |   |   |   |   |   |--- days_since_prior_order <= 22.50
|   |   |   |   |   |   |   |   |   |   |--- order_dow <= 4.50
|   |   |   |   |   |   |   |   |   |   |   |--- truncated branch of depth 4
|   |   |   |   |   |   |   |   |   |   |--- order_dow >  4.50
|   |   |   |   |   |   |   |   |   |   |   |--- truncated branch of depth 2
|   |   |   |   |   |   |   |   |   |--- days_since_prior_order >  22.50
|   |   |   |   |   |   |   |   |   |   |--- order_number <= 9.50
|   |   |   |   |   |   |   |   |   |   |   |--- truncated branch of depth 3
|   |   |   |   |   |   |   |   |   |   |--- order_number >  9.50
|   |   |   |   |   |   |   |   |   |   |   |--- class: 0.0
|   |--- order_number >  12.50
|   |   |--- add_to_cart_order <= 6.50
|   |   |   |--- department_id_is_6 <= 0.50
|   |   |   |   |--- department_id_is_16 <= 0.50
|   |   |   |   |   |--- department_id_is_4 <= 0.50
|   |   |   |   |   |   |--- department_id_is_17 <= 0.50
|   |   |   |   |   |   |   |--- department_id_is_20 <= 0.50
|   |   |   |   |   |   |   |   |--- department_id_is_11 <= 0.50
|   |   |   |   |   |   |   |   |   |--- order_number <= 28.50
|   |   |   |   |   |   |   |   |   |   |--- order_number <= 17.50
|   |   |   |   |   |   |   |   |   |   |   |--- truncated branch of depth 31
|   |   |   |   |   |   |   |   |   |   |--- order_number >  17.50
|   |   |   |   |   |   |   |   |   |   |   |--- truncated branch of depth 33
|   |   |   |   |   |   |   |   |   |--- order_number >  28.50
|   |   |   |   |   |   |   |   |   |   |--- order_number <= 41.50
|   |   |   |   |   |   |   |   |   |   |   |--- truncated branch of depth 31
|   |   |   |   |   |   |   |   |   |   |--- order_number >  41.50
|   |   |   |   |   |   |   |   |   |   |   |--- truncated branch of depth 37
|   |   |   |   |   |   |   |   |--- department_id_is_11 >  0.50
|   |   |   |   |   |   |   |   |   |--- days_since_prior_order <= 6.50
|   |   |   |   |   |   |   |   |   |   |--- add_to_cart_order <= 5.50
|   |   |   |   |   |   |   |   |   |   |   |--- truncated branch of depth 16
|   |   |   |   |   |   |   |   |   |   |--- add_to_cart_order >  5.50
|   |   |   |   |   |   |   |   |   |   |   |--- truncated branch of depth 9
|   |   |   |   |   |   |   |   |   |--- days_since_prior_order >  6.50
|   |   |   |   |   |   |   |   |   |   |--- add_to_cart_order <= 4.50
|   |   |   |   |   |   |   |   |   |   |   |--- truncated branch of depth 24
|   |   |   |   |   |   |   |   |   |   |--- add_to_cart_order >  4.50
|   |   |   |   |   |   |   |   |   |   |   |--- truncated branch of depth 17
|   |   |   |   |   |   |   |--- department_id_is_20 >  0.50
|   |   |   |   |   |   |   |   |--- days_since_prior_order <= 29.50
|   |   |   |   |   |   |   |   |   |--- add_to_cart_order <= 2.50
|   |   |   |   |   |   |   |   |   |   |--- days_since_prior_order <= 3.50
|   |   |   |   |   |   |   |   |   |   |   |--- truncated branch of depth 12
|   |   |   |   |   |   |   |   |   |   |--- days_since_prior_order >  3.50
|   |   |   |   |   |   |   |   |   |   |   |--- truncated branch of depth 17
|   |   |   |   |   |   |   |   |   |--- add_to_cart_order >  2.50
